{"learner":{"attributes":{"scikit_learn":"{\"_estimator_type\": \"regressor\"}"},"feature_names":[],"feature_types":[],"gradient_booster":{"model":{"cats":{"enc":[],"feature_segments":[],"sorted_idx":[]},"gbtree_model_param":{"num_parallel_tree":"1","num_trees":"500"},"iteration_indptr":[0,1,2,3,4,5,6,7,8,9,10,11,12,13,14,15,16,17,18,19,20,21,22,23,24,25,26,27,28,29,30,31,32,33,34,35,36,37,38,39,40,41,42,43,44,45,46,47,48,49,50,51,52,53,54,55,56,57,58,59,60,61,62,63,64,65,66,67,68,69,70,71,72,73,74,75,76,77,78,79,80,81,82,83,84,85,86,87,88,89,90,91,92,93,94,95,96,97,98,99,100,101,102,103,104,105,106,107,108,109,110,111,112,113,114,115,116,117,118,119,120,121,122,123,124,125,126,127,128,129,130,131,132,133,134,135,136,137,138,139,140,141,142,143,144,145,146,147,148,149,150,151,152,153,154,155,156,157,158,159,160,161,162,163,164,165,166,167,168,169,170,171,172,173,174,175,176,177,178,179,180,181,182,183,184,185,186,187,188,189,190,191,192,193,194,195,196,197,198,199,200,201,202,203,204,205,206,207,208,209,210,211,212,213,214,215,216,217,218,219,220,221,222,223,224,225,226,227,228,229,230,231,232,233,234,235,236,237,238,239,240,241,242,243,244,245,246,247,248,249,250,251,252,253,254,255,256,257,258,259,260,261,262,263,264,265,266,267,268,269,270,271,272,273,274,275,276,277,278,279,280,281,282,283,284,285,286,287,288,289,290,291,292,293,294,295,296,297,298,299,300,301,302,303,304,305,306,307,308,309,310,311,312,313,314,315,316,317,318,319,320,321,322,323,324,325,326,327,328,329,330,331,332,333,334,335,336,337,338,339,340,341,342,343,344,345,346,347,348,349,350,351,352,353,354,355,356,357,358,359,360,361,362,363,364,365,366,367,368,369,370,371,372,373,374,375,376,377,378,379,380,381,382,383,384,385,386,387,388,389,390,391,392,393,394,395,396,397,398,399,400,401,402,403,404,405,406,407,408,409,410,411,412,413,414,415,416,417,418,419,420,421,422,423,424,425,426,427,428,429,430,431,432,433,434,435,436,437,438,439,440,441,442,443,444,445,446,447,448,449,450,451,452,453,454,455,456,457,458,459,460,461,462,463,464,465,466,467,468,469,470,471,472,473,474,475,476,477,478,479,480,481,482,483,484,485,486,487,488,489,490,491,492,493,494,495,496,497,498,499,500],"tree_info":[0,0,0,0,0,0,0,0,0,0,0,0,0,0,0,0,0,0,0,0,0,0,0,0,0,0,0,0,0,0,0,0,0,0,0,0,0,0,0,0,0,0,0,0,0,0,0,0,0,0,0,0,0,0,0,0,0,0,0,0,0,0,0,0,0,0,0,0,0,0,0,0,0,0,0,0,0,0,0,0,0,0,0,0,0,0,0,0,0,0,0,0,0,0,0,0,0,0,0,0,0,0,0,0,0,0,0,0,0,0,0,0,0,0,0,0,0,0,0,0,0,0,0,0,0,0,0,0,0,0,0,0,0,0,0,0,0,0,0,0,0,0,0,0,0,0,0,0,0,0,0,0,0,0,0,0,0,0,0,0,0,0,0,0,0,0,0,0,0,0,0,0,0,0,0,0,0,0,0,0,0,0,0,0,0,0,0,0,0,0,0,0,0,0,0,0,0,0,0,0,0,0,0,0,0,0,0,0,0,0,0,0,0,0,0,0,0,0,0,0,0,0,0,0,0,0,0,0,0,0,0,0,0,0,0,0,0,0,0,0,0,0,0,0,0,0,0,0,0,0,0,0,0,0,0,0,0,0,0,0,0,0,0,0,0,0,0,0,0,0,0,0,0,0,0,0,0,0,0,0,0,0,0,0,0,0,0,0,0,0,0,0,0,0,0,0,0,0,0,0,0,0,0,0,0,0,0,0,0,0,0,0,0,0,0,0,0,0,0,0,0,0,0,0,0,0,0,0,0,0,0,0,0,0,0,0,0,0,0,0,0,0,0,0,0,0,0,0,0,0,0,0,0,0,0,0,0,0,0,0,0,0,0,0,0,0,0,0,0,0,0,0,0,0,0,0,0,0,0,0,0,0,0,0,0,0,0,0,0,0,0,0,0,0,0,0,0,0,0,0,0,0,0,0,0,0,0,0,0,0,0,0,0,0,0,0,0,0,0,0,0,0,0,0,0,0,0,0,0,0,0,0,0,0,0,0,0,0,0,0,0,0,0,0,0,0,0,0,0,0,0,0,0,0,0,0,0,0,0,0,0,0,0,0,0,0,0,0,0,0,0,0,0,0,0,0,0,0,0,0,0,0,0,0,0,0,0,0,0,0,0,0,0,0,0,0,0,0,0,0],"trees":[{"base_weights":[-4.2172003E-4,3.4018147E-1,-3.635971E-2,8.963868E-3,5.1857185E-1,-3.2516263E-2,-5.5098195E-2,4.5153397E-1,5.88048E-1,-6.312326E-2,-2.998583E-2,-6.7027815E-2,-4.297917E-2,4.9743256E-1,3.8517952E-1,6.342125E-1,3.9822388E-1,-6.901728E-2,-5.3296197E-2,-5.4034717E-2,-2.6854424E-2,-5.92268E-2,-7.127387E-2,-4.3302365E-2,2.0140631E-2,4.641225E-1,5.899925E-1,2.0296488E-2,1.7972987E-2,1.9468924E-2,6.668004E-1,3.3845064E-1,5.4162323E-1,-6.7091435E-2,-4.124981E-3,-4.4574812E-2,-6.9496915E-2,-7.085003E-2,-5.154735E-2,-1.3548451E-2,-3.5740238E-2,-5.4664962E-2,-7.305428E-2,-3.9571035E-3,-6.677949E-2,-3.9202865E-2,-6.311423E-2,1.7553737E-2,2.3878332E-2,3.21225E-2,2.156425E-2,2.7791573E-2,3.5321526E-2,1.5716141E-2,1.9790329E-2,1.7132133E-2,3.2004315E-2,-3.956138E-3,-3.2404184E-3,-3.9632986E-3,-1.8988822E-3,-3.8259E-3,-3.1006897E-3,-3.8490244E-3,-3.215747E-3,-2.0460584E-3,-2.7701133E-3,-1.973079E-3,-4.1568992E-4,-1.7951066E-3,2.452841E-2,-3.2405385E-3,-1.7588328E-3,-3.3541832E-3,-4.0903385E-3,-2.9770264E-3,-3.6588006E-3,-2.2581E-3,-1.3198102E-3,-1.8329135E-3,-3.6095027E-3],"categories":[],"categories_nodes":[],"categories_segments":[],"categories_sizes":[],"default_left":[0,0,0,0,0,0,0,0,0,0,0,0,0,0,0,0,0,0,0,0,0,0,0,0,0,0,0,0,0,0,0,0,0,0,0,0,0,0,0,0,0,0,0,0,0,0,0,0,0,0,0,0,0,0,0,0,0,0,0,0,0,0,0,0,0,0,0,0,0,0,0,0,0,0,0,0,0,0,0,0,0],"id":0,"left_children":[1,3,5,-1,7,9,11,13,15,17,19,21,23,25,27,29,31,33,35,37,39,41,43,45,-1,47,49,-1,-1,-1,51,53,55,57,-1,59,61,63,65,67,69,71,73,-1,75,77,79,-1,-1,-1,-1,-1,-1,-1,-1,-1,-1,-1,-1,-1,-1,-1,-1,-1,-1,-1,-1,-1,-1,-1,-1,-1,-1,-1,-1,-1,-1,-1,-1,-1,-1],"loss_changes":[6.418968E2,1.4356927E2,3.4144974E0,0E0,1.0786804E1,3.0468063E0,1.1641312E0,3.499649E0,9.930206E0,1.7037392E-1,2.7367058E0,1.3046074E-1,5.947614E-1,1.9244843E0,1.2093353E-1,7.1844482E0,1.7881203E0,4.3149948E-2,1.5670419E-1,1.7151451E-1,3.8034725E0,8.677673E-2,8.764744E-2,3.228073E-1,0E0,6.3632965E-1,1.2631149E0,0E0,0E0,0E0,3.2222595E0,1.0392952E-1,1.0737667E0,4.008484E-2,0E0,1.6589093E-1,1.5955448E-2,1.6562939E-2,1.4732933E-1,1.7473378E0,1.661232E0,2.1244907E-1,1.3011336E-2,0E0,7.33881E-2,2.5225544E-1,1.6182852E-1,0E0,0E0,0E0,0E0,0E0,0E0,0E0,0E0,0E0,0E0,0E0,0E0,0E0,0E0,0E0,0E0,0E0,0E0,0E0,0E0,0E0,0E0,0E0,0E0,0E0,0E0,0E0,0E0,0E0,0E0,0E0,0E0,0E0,0E0],"parents":[2147483647,0,0,1,1,2,2,4,4,5,5,6,6,7,7,8,8,9,9,10,10,11,11,12,12,13,13,14,14,15,15,16,16,17,17,18,18,19,19,20,20,21,21,22,22,23,23,25,25,26,26,30,30,31,31,32,32,33,33,35,35,36,36,37,37,38,38,39,39,40,40,41,41,42,42,44,44,45,45,46,46],"right_children":[2,4,6,-1,8,10,12,14,16,18,20,22,24,26,28,30,32,34,36,38,40,42,44,46,-1,48,50,-1,-1,-1,52,54,56,58,-1,60,62,64,66,68,70,72,74,-1,76,78,80,-1,-1,-1,-1,-1,-1,-1,-1,-1,-1,-1,-1,-1,-1,-1,-1,-1,-1,-1,-1,-1,-1,-1,-1,-1,-1,-1,-1,-1,-1,-1,-1,-1,-1],"split_conditions":[1E0,2E0,-5.2816772E0,8.963868E-3,9.0807495E1,9.062073E1,9.0807495E1,9.069763E1,9.086243E1,9.060974E1,-7.0710677E-1,-5.2651978E0,4E0,-5.3201294E0,5E-1,-5.375061E0,-5.2816772E0,-5.3311157E0,-5.347595E0,9.065369E1,9.073059E1,9.073059E1,-5.2542114E0,9.093933E1,2.0140631E-2,9.065369E1,7.0710677E-1,2.0296488E-2,1.7972987E-2,1.9468924E-2,4E0,1.3E1,6E0,-5E-1,-4.124981E-3,-7.0710677E-1,5E-1,9.06427E1,1.7E1,9.06427E1,4E0,9.069763E1,-5.276184E0,-3.9571035E-3,-5.243225E0,9.090637E1,-5.276184E0,1.7553737E-2,2.3878332E-2,3.21225E-2,2.156425E-2,2.7791573E-2,3.5321526E-2,1.5716141E-2,1.9790329E-2,1.7132133E-2,3.2004315E-2,-3.956138E-3,-3.2404184E-3,-3.9632986E-3,-1.8988822E-3,-3.8259E-3,-3.1006897E-3,-3.8490244E-3,-3.215747E-3,-2.0460584E-3,-2.7701133E-3,-1.973079E-3,-4.1568992E-4,-1.7951066E-3,2.452841E-2,-3.2405385E-3,-1.7588328E-3,-3.3541832E-3,-4.0903385E-3,-2.9770264E-3,-3.6588006E-3,-2.2581E-3,-1.3198102E-3,-1.8329135E-3,-3.6095027E-3],"split_indices":[19,1,3,0,4,4,4,4,4,4,8,3,1,3,8,3,3,3,3,4,4,4,3,4,0,4,9,0,0,0,5,5,5,8,0,8,9,4,5,4,1,4,3,0,3,4,3,0,0,0,0,0,0,0,0,0,0,0,0,0,0,0,0,0,0,0,0,0,0,0,0,0,0,0,0,0,0,0,0,0,0],"split_type":[0,0,0,0,0,0,0,0,0,0,0,0,0,0,0,0,0,0,0,0,0,0,0,0,0,0,0,0,0,0,0,0,0,0,0,0,0,0,0,0,0,0,0,0,0,0,0,0,0,0,0,0,0,0,0,0,0,0,0,0,0,0,0,0,0,0,0,0,0,0,0,0,0,0,0,0,0,0,0,0,0],"sum_hessian":[5.2438E4,5.004E3,4.7434E4,2.632E3,2.372E3,3.9363E4,8.071E3,1.211E3,1.161E3,3.004E3,3.6359E4,4.065E3,4.006E3,7.12E2,4.99E2,9.32E2,2.29E2,1.874E3,1.13E3,4.187E3,3.2172E4,1.438E3,2.627E3,4.004E3,2E0,5.28E2,1.84E2,2.68E2,2.31E2,1.11E2,8.21E2,1.64E2,6.5E1,1.645E3,2.29E2,7.37E2,3.93E2,5.36E2,3.651E3,1.2883E4,1.9289E4,1.085E3,3.53E2,9.49E2,1.678E3,3.32E3,6.84E2,5.9E1,4.69E2,1.36E2,4.8E1,2.2E2,6.01E2,1.2E2,4.4E1,2.3E1,4.2E1,2.57E2,1.388E3,1.16E2,6.21E2,1.98E2,1.95E2,2.71E2,2.65E2,9.75E2,2.676E3,2.164E3,1.0719E4,1.9284E4,5E0,7.12E2,3.73E2,2.15E2,1.38E2,7.92E2,8.86E2,2.264E3,1.056E3,1.76E2,5.08E2],"tree_param":{"num_deleted":"0","num_feature":"38","num_nodes":"81","size_leaf_vector":"1"}},{"base_weights":[1.1785068E-4,-2.3574473E-2,4.9294758E-1,8.4912805E-3,-3.4472965E-2,4.226821E-1,5.6528395E-1,-3.4623876E-2,4.4613284E-1,4.632522E-1,3.6457792E-1,6.096092E-1,3.6090064E-1,-3.0944502E-2,-5.259782E-2,1.56782E-2,5.5284524E-1,4.363797E-1,5.444472E-1,3.3888254E-1,1.9086035E-2,1.8631456E-2,6.399678E-1,3.160206E-1,4.8489887E-1,-5.195416E-2,-2.7614756E-2,-6.3871354E-2,-4.1017022E-2,5.979444E-1,7.0562563E-3,1.6282437E-2,4.4963524E-1,5.659034E-1,1.1676925E-2,1.8389558E-2,1.5624589E-2,6.7017376E-1,4.8470372E-1,1.4810572E-2,3.6629084E-1,5.522114E-1,1.3429227E-2,-3.2742012E-3,-2.2460765E-3,-7.278636E-4,-1.7724343E-3,-2.8498126E-3,-3.3792176E-3,-1.9224985E-3,-3.4580987E-3,8.524472E-3,3.2466877E-2,1.1844444E-2,2.270363E-2,3.3883955E-2,2.5135294E-2,2.823748E-2,3.439421E-2,1.859185E-2,2.630106E-2,1.6260419E-2,2.381138E-2,1.6577478E-2,3.6385633E-2],"categories":[],"categories_nodes":[],"categories_segments":[],"categories_sizes":[],"default_left":[0,0,0,0,0,0,0,0,0,0,0,0,0,0,0,0,0,0,0,0,0,0,0,0,0,0,0,0,0,0,0,0,0,0,0,0,0,0,0,0,0,0,0,0,0,0,0,0,0,0,0,0,0,0,0,0,0,0,0,0,0,0,0,0,0],"id":1,"left_children":[1,3,5,-1,7,9,11,13,15,17,19,21,23,25,27,-1,29,31,33,35,-1,-1,37,39,41,43,45,47,49,51,-1,-1,53,55,-1,-1,-1,57,59,-1,61,63,-1,-1,-1,-1,-1,-1,-1,-1,-1,-1,-1,-1,-1,-1,-1,-1,-1,-1,-1,-1,-1,-1,-1],"loss_changes":[6.1475616E2,1.0588962E2,1.203595E1,0E0,3.4646225E0,2.7282104E0,1.0533417E1,3.1424599E0,3.884864E-2,1.3333893E0,9.529114E-2,6.7688904E0,1.0376797E0,2.7594833E0,1.0518856E0,0E0,4.5592785E-2,6.5499115E-1,1.0352516E0,4.7571182E-2,0E0,0E0,3.7178345E0,5.0831795E-2,6.5252113E-1,5.106821E-1,3.4844494E0,1.00580215E-1,2.8539944E-1,2.1104336E-2,0E0,0E0,3.502884E-1,8.1074905E-1,0E0,0E0,0E0,9.539795E-1,4.7593307E-1,0E0,3.030157E-2,1.3465118E0,0E0,0E0,0E0,0E0,0E0,0E0,0E0,0E0,0E0,0E0,0E0,0E0,0E0,0E0,0E0,0E0,0E0,0E0,0E0,0E0,0E0,0E0,0E0],"parents":[2147483647,0,0,1,1,2,2,4,4,5,5,6,6,7,7,8,8,9,9,10,10,11,11,12,12,13,13,14,14,16,16,17,17,18,18,19,19,22,22,23,23,24,24,25,25,26,26,27,27,28,28,29,29,32,32,33,33,37,37,38,38,40,40,41,41],"right_children":[2,4,6,-1,8,10,12,14,16,18,20,22,24,26,28,-1,30,32,34,36,-1,-1,38,40,42,44,46,48,50,52,-1,-1,54,56,-1,-1,-1,58,60,-1,62,64,-1,-1,-1,-1,-1,-1,-1,-1,-1,-1,-1,-1,-1,-1,-1,-1,-1,-1,-1,-1,-1,-1,-1],"split_conditions":[1E0,1E0,9.0807495E1,8.4912805E-3,4E0,9.069763E1,9.086243E1,-5.2816772E0,5.6655387E-16,-5.3201294E0,-5.3640747E0,-5.375061E0,-5.2816772E0,9.06427E1,9.0807495E1,1.56782E-2,-5.336609E0,9.065369E1,-5.309143E0,-7.0710677E-1,1.9086035E-2,1.8631456E-2,9.659258E-1,1.3E1,-5.276184E0,9.060974E1,9.073059E1,-5.2651978E0,9.095032E1,-5.446472E0,7.0562563E-3,1.6282437E-2,-5.4574585E0,-7.0710677E-1,1.1676925E-2,1.8389558E-2,1.5624589E-2,-5.3640747E0,9.081848E1,1.4810572E-2,9.0928345E1,6E0,1.3429227E-2,-3.2742012E-3,-2.2460765E-3,-7.278636E-4,-1.7724343E-3,-2.8498126E-3,-3.3792176E-3,-1.9224985E-3,-3.4580987E-3,8.524472E-3,3.2466877E-2,1.1844444E-2,2.270363E-2,3.3883955E-2,2.5135294E-2,2.823748E-2,3.439421E-2,1.859185E-2,2.630106E-2,1.6260419E-2,2.381138E-2,1.6577478E-2,3.6385633E-2],"split_indices":[18,19,4,0,1,4,4,3,10,3,3,3,3,4,4,0,3,4,3,9,0,0,9,5,3,4,4,3,4,3,0,0,3,9,0,0,0,3,4,0,4,5,0,0,0,0,0,0,0,0,0,0,0,0,0,0,0,0,0,0,0,0,0,0,0],"split_type":[0,0,0,0,0,0,0,0,0,0,0,0,0,0,0,0,0,0,0,0,0,0,0,0,0,0,0,0,0,0,0,0,0,0,0,0,0,0,0,0,0,0,0,0,0,0,0,0,0,0,0,0,0,0,0,0,0,0,0,0,0,0,0,0,0],"sum_hessian":[5.2648E4,5.0234E4,2.414E3,2.679E3,4.7555E4,1.228E3,1.186E3,4.7541E4,1.4E1,7.19E2,5.09E2,9.73E2,2.13E2,3.9465E4,8.076E3,8E0,6E0,5.45E2,1.74E2,2.12E2,2.97E2,1.12E2,8.61E2,1.59E2,5.4E1,5.397E3,3.4068E4,4.09E3,3.986E3,5E0,1E0,6.1E1,4.84E2,1.62E2,1.2E1,9.5E1,1.17E2,7.18E2,1.43E2,1.19E2,4E1,4E1,1.4E1,1.843E3,3.554E3,1.2776E4,2.1292E4,1.44E3,2.65E3,3.655E3,3.31E2,1E0,4E0,1.1E1,4.73E2,5.5E1,1.07E2,1.08E2,6.1E2,4.1E1,1.02E2,3.2E1,8E0,1.9E1,2.1E1],"tree_param":{"num_deleted":"0","num_feature":"38","num_nodes":"65","size_leaf_vector":"1"}},{"base_weights":[1.964056E-5,-2.2102317E-2,4.6594653E-1,8.112901E-3,-3.2600757E-2,3.6014333E-1,4.9693358E-1,-3.2751333E-2,4.4571483E-1,4.4810104E-1,3.5031375E-1,5.584376E-1,4.6002695E-1,-2.9239364E-2,-4.9939573E-2,2.5724787E-2,1.2839714E-2,1.1187684E-2,5.113937E-1,3.7221056E-1,1.5938913E-2,5.863109E-1,1.6195845E-2,5.066271E-1,4.0092716E-1,-4.6978787E-2,-2.555472E-2,-4.2102795E-2,-5.5532593E-2,3.3713587E-2,4.400546E-1,1.7575426E-2,4.2086577E-1,6.136026E-1,4.4736415E-1,7.147046E-1,4.9561736E-1,3.1843656E-1,4.0778205E-1,-2.5826532E-3,-1.8989425E-3,-1.768133E-3,-1.0017942E-3,-2.2806502E-3,-1.563274E-3,-2.5577382E-3,-3.2807314E-3,2.2707215E-2,8.093298E-3,1.7181687E-2,2.3812288E-2,2.871658E-2,3.480945E-2,1.8572291E-2,2.5670463E-2,8.719056E-3,3.9556216E-2,2.5130808E-2,1.3719161E-2,1.105007E-2,1.8311044E-2,2.336964E-2,1.9747298E-2],"categories":[],"categories_nodes":[],"categories_segments":[],"categories_sizes":[],"default_left":[0,0,0,0,0,0,0,0,0,0,0,0,0,0,0,0,0,0,0,0,0,0,0,0,0,0,0,0,0,0,0,0,0,0,0,0,0,0,0,0,0,0,0,0,0,0,0,0,0,0,0,0,0,0,0,0,0,0,0,0,0,0,0],"id":2,"left_children":[1,3,5,-1,7,9,11,13,15,17,19,21,23,25,27,-1,-1,-1,29,31,-1,33,-1,35,37,39,41,43,45,-1,47,-1,49,51,53,55,57,59,61,-1,-1,-1,-1,-1,-1,-1,-1,-1,-1,-1,-1,-1,-1,-1,-1,-1,-1,-1,-1,-1,-1,-1,-1],"loss_changes":[5.4142773E2,9.706654E1,7.6271973E0,0E0,3.4318008E0,3.1249237E-1,3.91745E0,2.8618088E0,6.279206E-2,6.0975075E-1,2.2178268E-1,4.287842E0,2.9778137E0,2.5733376E0,3.5032845E-1,0E0,0E0,0E0,1.5644646E-1,1.3912964E-1,0E0,2.0424652E0,0E0,1.1165161E0,1.6078949E-1,2.829666E-1,1.7647438E0,1.262021E-1,2.0373535E-1,0E0,4.4077396E-2,0E0,1.7851543E-1,1.2477264E0,3.3075714E-1,1.1007853E0,8.112488E-1,1.239233E-1,1.7579651E-1,0E0,0E0,0E0,0E0,0E0,0E0,0E0,0E0,0E0,0E0,0E0,0E0,0E0,0E0,0E0,0E0,0E0,0E0,0E0,0E0,0E0,0E0,0E0,0E0],"parents":[2147483647,0,0,1,1,2,2,4,4,5,5,6,6,7,7,8,8,9,9,10,10,11,11,12,12,13,13,14,14,18,18,19,19,21,21,23,23,24,24,25,25,26,26,27,27,28,28,30,30,32,32,33,33,34,34,35,35,36,36,37,37,38,38],"right_children":[2,4,6,-1,8,10,12,14,16,18,20,22,24,26,28,-1,-1,-1,30,32,-1,34,-1,36,38,40,42,44,46,-1,48,-1,50,52,54,56,58,60,62,-1,-1,-1,-1,-1,-1,-1,-1,-1,-1,-1,-1,-1,-1,-1,-1,-1,-1,-1,-1,-1,-1,-1,-1],"split_conditions":[1E0,1E0,-5.375061E0,8.112901E-3,4E0,-5.4519653E0,-5.347595E0,-5.2816772E0,1.6696245E1,-5.4574585E0,7.0710677E-1,1E0,1E0,-5E-1,-5.2651978E0,2.5724787E-2,1.2839714E-2,1.1187684E-2,-8.660254E-1,1E0,1.5938913E-2,9.659258E-1,1.6195845E-2,-5.342102E0,-5.342102E0,-7.0710677E-1,-5.3860474E0,1E0,1E0,3.3713587E-2,8.660254E-1,1.7575426E-2,-5.3860474E0,-5.3530884E0,1.2246469E-16,1E0,-5.276184E0,1E0,-5.336609E0,-2.5826532E-3,-1.8989425E-3,-1.768133E-3,-1.0017942E-3,-2.2806502E-3,-1.563274E-3,-2.5577382E-3,-3.2807314E-3,2.2707215E-2,8.093298E-3,1.7181687E-2,2.3812288E-2,2.871658E-2,3.480945E-2,1.8572291E-2,2.5670463E-2,8.719056E-3,3.9556216E-2,2.5130808E-2,1.3719161E-2,1.105007E-2,1.8311044E-2,2.336964E-2,1.9747298E-2],"split_indices":[18,19,3,0,1,3,3,3,2,3,8,33,16,8,3,0,0,0,9,33,0,9,0,3,3,8,3,37,34,0,9,0,3,3,8,33,3,33,3,0,0,0,0,0,0,0,0,0,0,0,0,0,0,0,0,0,0,0,0,0,0,0,0],"split_type":[0,0,0,0,0,0,0,0,0,0,0,0,0,0,0,0,0,0,0,0,0,0,0,0,0,0,0,0,0,0,0,0,0,0,0,0,0,0,0,0,0,0,0,0,0,0,0,0,0,0,0,0,0,0,0,0,0,0,0,0,0,0,0],"sum_hessian":[5.2527E4,5.0147E4,2.38E3,2.701E3,4.7446E4,5.42E2,1.838E3,4.7432E4,1.4E1,5E1,4.92E2,6.84E2,1.154E3,3.9387E4,8.045E3,9E0,5E0,1.2E1,3.8E1,2.84E2,2.08E2,6.1E2,7.4E1,6.41E2,5.13E2,6.772E3,3.2615E4,3.354E3,4.691E3,9E0,2.9E1,2.05E2,7.9E1,5.07E2,1.03E2,2.9E1,6.12E2,4.3E1,4.7E2,4.454E3,2.318E3,1.1742E4,2.0873E4,2.531E3,8.23E2,3.275E3,1.416E3,2.7E1,2E0,3.6E1,4.3E1,3.49E2,1.58E2,5.1E1,5.2E1,4E0,2.5E1,5.92E2,2E1,1.6E1,2.7E1,7.7E1,3.93E2],"tree_param":{"num_deleted":"0","num_feature":"38","num_nodes":"63","size_leaf_vector":"1"}},{"base_weights":[4.2579276E-4,-2.1131577E-2,4.4514614E-1,7.6891086E-3,-3.097899E-2,3.4369767E-1,4.735374E-1,-3.1140456E-2,3.963098E-1,4.381536E-1,3.3218253E-1,5.3504527E-1,4.347422E-1,-2.7868439E-2,-4.730528E-2,1.4825287E-2,4.8400164E-1,1.08746365E-2,5.01275E-1,1.5371958E-2,3.6161733E-1,5.5969995E-1,1.5462714E-2,4.8592174E-1,3.7327948E-1,-2.435391E-2,-3.8708594E-2,-3.9609805E-2,-5.2815992E-2,3.0187754E-2,1.0665475E-2,5.226575E-1,8.373833E-3,1.6844431E-2,4.1947284E-1,1.6033046E-2,5.759447E-1,6.787704E-1,4.7386235E-1,3.6619365E-1,2.2590606E-2,-1.6514364E-3,-9.663012E-4,-2.2586859E-3,-1.3254154E-3,-1.8361694E-3,-2.512641E-3,-2.4371583E-3,-3.1205849E-3,1.1247809E-2,2.751266E-2,1.6747717E-2,2.3325713E-2,2.6689818E-2,3.3603247E-2,1.0226565E-2,3.8491804E-2,2.4061741E-2,1.29146455E-2,1.7379861E-2,1.9587878E-2],"categories":[],"categories_nodes":[],"categories_segments":[],"categories_sizes":[],"default_left":[0,0,0,0,0,0,0,0,0,0,0,0,0,0,0,0,0,0,0,0,0,0,0,0,0,0,0,0,0,0,0,0,0,0,0,0,0,0,0,0,0,0,0,0,0,0,0,0,0,0,0,0,0,0,0,0,0,0,0,0,0],"id":3,"left_children":[1,3,5,-1,7,9,11,13,15,17,19,21,23,25,27,-1,29,-1,31,-1,33,35,-1,37,39,41,43,45,47,-1,-1,49,-1,-1,51,-1,53,55,57,59,-1,-1,-1,-1,-1,-1,-1,-1,-1,-1,-1,-1,-1,-1,-1,-1,-1,-1,-1,-1,-1],"loss_changes":[5.0389258E2,8.635109E1,6.836273E0,0E0,3.2866402E0,4.3636322E-1,4.2916565E0,2.507969E0,1.402688E-2,6.570387E-1,2.3914337E-1,3.8851166E0,3.4927063E0,1.502327E0,3.365307E-1,0E0,1.3054383E-1,0E0,2.1224022E-1,0E0,1.6485023E-1,2.3626404E0,0E0,1.1528168E0,1.3226318E-1,1.29912E0,7.606697E-1,1.00637436E-1,1.7868805E-1,0E0,0E0,1.9661331E-1,0E0,0E0,8.22916E-2,0E0,2.12471E0,1.3540859E0,8.292694E-1,9.9624634E-2,0E0,0E0,0E0,0E0,0E0,0E0,0E0,0E0,0E0,0E0,0E0,0E0,0E0,0E0,0E0,0E0,0E0,0E0,0E0,0E0,0E0],"parents":[2147483647,0,0,1,1,2,2,4,4,5,5,6,6,7,7,8,8,9,9,10,10,11,11,12,12,13,13,14,14,16,16,18,18,20,20,21,21,23,23,24,24,25,25,26,26,27,27,28,28,31,31,34,34,36,36,37,37,38,38,39,39],"right_children":[2,4,6,-1,8,10,12,14,16,18,20,22,24,26,28,-1,30,-1,32,-1,34,36,-1,38,40,42,44,46,48,-1,-1,50,-1,-1,52,-1,54,56,58,60,-1,-1,-1,-1,-1,-1,-1,-1,-1,-1,-1,-1,-1,-1,-1,-1,-1,-1,-1,-1,-1],"split_conditions":[1E0,1E0,-5.375061E0,7.6891086E-3,4E0,-5.4519653E0,-5.347595E0,-5.2816772E0,5.6655387E-16,-5.4574585E0,6.45E2,1E0,1E0,1.5E1,-5.2651978E0,1.4825287E-2,1.6267632E1,1.08746365E-2,8.7E2,1.5371958E-2,-5.3860474E0,1E0,1.5462714E-2,-5.342102E0,1.41E3,-5.3860474E0,1.29E3,9.15E2,1E0,3.0187754E-2,1.0665475E-2,2.1E2,8.373833E-3,1.6844431E-2,1E0,1.6033046E-2,-5.3530884E0,1E0,-5.276184E0,4.9E1,2.2590606E-2,-1.6514364E-3,-9.663012E-4,-2.2586859E-3,-1.3254154E-3,-1.8361694E-3,-2.512641E-3,-2.4371583E-3,-3.1205849E-3,1.1247809E-2,2.751266E-2,1.6747717E-2,2.3325713E-2,2.6689818E-2,3.3603247E-2,1.0226565E-2,3.8491804E-2,2.4061741E-2,1.29146455E-2,1.7379861E-2,1.9587878E-2],"split_indices":[18,19,3,0,1,3,3,3,10,3,7,33,16,5,3,0,2,0,7,0,3,5,0,3,7,3,7,7,34,0,0,7,0,0,33,0,3,33,3,0,0,0,0,0,0,0,0,0,0,0,0,0,0,0,0,0,0,0,0,0,0],"split_type":[0,0,0,0,0,0,0,0,0,0,0,0,0,0,0,0,0,0,0,0,0,0,0,0,0,0,0,0,0,0,0,0,0,0,0,0,0,0,0,0,0,0,0,0,0,0,0,0,0,0,0,0,0,0,0,0,0,0,0,0,0],"sum_hessian":[5.2558E4,5.0129E4,2.429E3,2.671E3,4.7458E4,5.34E2,1.895E3,4.7441E4,1.7E1,5.4E1,4.8E2,7.28E2,1.167E3,3.9457E4,7.984E3,1E1,7E0,1.3E1,4.1E1,2.67E2,2.13E2,6.55E2,7.3E1,6.33E2,5.34E2,2.9799E4,9.658E3,3.335E3,4.649E3,4E0,3E0,3.8E1,3E0,1.54E2,5.9E1,4.3E1,6.12E2,3.4E1,5.99E2,4.95E2,3.9E1,1.0932E4,1.8867E4,6.311E3,3.347E3,2.627E3,7.08E2,3.268E3,1.381E3,4E0,3.4E1,2.4E1,3.5E1,4.3E2,1.82E2,6E0,2.8E1,5.78E2,2.1E1,2.95E2,2E2],"tree_param":{"num_deleted":"0","num_feature":"38","num_nodes":"61","size_leaf_vector":"1"}},{"base_weights":[4.3252032E-4,-2.0208173E-2,4.2532256E-1,-2.963621E-2,7.3138624E-3,3.8587558E-1,4.4838393E-1,-2.979008E-2,4.0204978E-1,3.9622265E-1,3.1670207E-1,4.00126E-1,2.3630895E-2,-4.7286108E-2,-2.7730199E-2,1.3833918E-2,5.0850785E-1,3.7962556E-1,4.5770636E-1,1.2928771E-2,3.4261206E-1,3.632564E-1,4.197988E-1,-5.3778935E-2,-4.1165173E-2,-2.6637087E-2,-5.5656236E-2,3.2468215E-2,1.026552E-2,3.810372E-1,8.536073E-3,4.6250015E-1,1.0734049E-2,3.7633076E-1,1.5076937E-2,1.86323E-2,2.796941E-1,6.945248E-3,4.2108026E-1,-2.4026365E-3,-2.8900316E-3,-1.6123977E-3,-2.2958878E-3,-1.2544615E-3,-2.0897824E-3,-3.165479E-3,-2.7152721E-3,1.7870272E-2,2.0000223E-2,4.9765417E-3,2.3208907E-2,2.1529872E-2,1.575698E-2,7.146849E-3,1.4653042E-2,1.9819243E-2,2.2257324E-2],"categories":[],"categories_nodes":[],"categories_segments":[],"categories_sizes":[],"default_left":[0,0,0,0,0,0,0,0,0,0,0,0,0,0,0,0,0,0,0,0,0,0,0,0,0,0,0,0,0,0,0,0,0,0,0,0,0,0,0,0,0,0,0,0,0,0,0,0,0,0,0,0,0,0,0,0,0],"id":4,"left_children":[1,3,5,7,-1,9,11,13,15,17,19,21,-1,23,25,-1,27,29,31,-1,33,35,37,39,41,43,45,-1,-1,47,-1,49,-1,51,-1,-1,53,-1,55,-1,-1,-1,-1,-1,-1,-1,-1,-1,-1,-1,-1,-1,-1,-1,-1,-1,-1],"loss_changes":[4.6170654E2,7.881078E1,2.0457458E0,3.1682434E0,0E0,5.236969E-1,1.6037292E0,1.7106133E0,8.620262E-2,6.2729645E-1,9.665489E-2,2.2395325E-1,0E0,1.9657707E-1,1.2958832E0,0E0,2.0833707E-1,1.1896515E-1,8.943939E-2,0E0,8.583069E-5,4.3283463E-2,6.1012268E-2,5.3044796E-2,1.07816696E-1,9.586258E-1,1.3103485E-2,0E0,0E0,1.3449097E-1,0E0,5.0029755E-2,0E0,4.4822693E-4,0E0,0E0,1.5461445E-4,0E0,1.9680023E-2,0E0,0E0,0E0,0E0,0E0,0E0,0E0,0E0,0E0,0E0,0E0,0E0,0E0,0E0,0E0,0E0,0E0,0E0],"parents":[2147483647,0,0,1,1,2,2,3,3,5,5,6,6,7,7,8,8,9,9,10,10,11,11,13,13,14,14,16,16,17,17,18,18,20,20,21,21,22,22,23,23,24,24,25,25,26,26,29,29,31,31,33,33,36,36,38,38],"right_children":[2,4,6,8,-1,10,12,14,16,18,20,22,-1,24,26,-1,28,30,32,-1,34,36,38,40,42,44,46,-1,-1,48,-1,50,-1,52,-1,-1,54,-1,56,-1,-1,-1,-1,-1,-1,-1,-1,-1,-1,-1,-1,-1,-1,-1,-1,-1,-1],"split_conditions":[1E0,1E0,1E0,4E0,7.3138624E-3,9.15E2,3.45E2,-7.0710677E-1,5.6655387E-16,7.35E2,1.29E3,1.05E2,2.3630895E-2,1E0,1E0,1.3833918E-2,1.6696245E1,1E0,1E0,1.2928771E-2,1.5736237E1,2.3533978E1,-2.9530241E0,1.065E3,1.035E3,1E0,-2.5881904E-1,3.2468215E-2,1.026552E-2,6E0,8.536073E-3,-1.1092055E0,1.0734049E-2,1E0,1.5076937E-2,1.86323E-2,1.5E1,6.945248E-3,1E0,-2.4026365E-3,-2.8900316E-3,-1.6123977E-3,-2.2958878E-3,-1.2544615E-3,-2.0897824E-3,-3.165479E-3,-2.7152721E-3,1.7870272E-2,2.0000223E-2,4.9765417E-3,2.3208907E-2,2.1529872E-2,1.575698E-2,7.146849E-3,1.4653042E-2,1.9819243E-2,2.2257324E-2],"split_indices":[18,20,36,1,0,7,7,8,10,7,7,7,0,36,34,0,2,35,37,0,2,2,2,7,7,37,8,0,0,5,0,2,0,26,0,0,7,0,23,0,0,0,0,0,0,0,0,0,0,0,0,0,0,0,0,0,0],"split_type":[0,0,0,0,0,0,0,0,0,0,0,0,0,0,0,0,0,0,0,0,0,0,0,0,0,0,0,0,0,0,0,0,0,0,0,0,0,0,0,0,0,0,0,0,0,0,0,0,0,0,0,0,0,0,0,0,0],"sum_hessian":[5.2644E4,5.0206E4,2.438E3,4.7516E4,2.69E3,9.06E2,1.532E3,4.75E4,1.6E1,7.84E2,1.22E2,5.18E2,1.014E3,5.001E3,4.2499E4,9E0,7E0,6.23E2,1.61E2,4.1E1,8.1E1,1.87E2,3.31E2,2.423E3,2.578E3,4.09E4,1.599E3,4E0,3E0,6.18E2,5E0,1.57E2,4E0,4E1,4.1E1,1.65E2,2.2E1,2E0,3.29E2,1.005E3,1.418E3,8.99E2,1.679E3,3.7113E4,3.787E3,2.33E2,1.366E3,2.84E2,3.34E2,1E0,1.56E2,1.8E1,2.2E1,3E0,1.9E1,1.71E2,1.58E2],"tree_param":{"num_deleted":"0","num_feature":"38","num_nodes":"57","size_leaf_vector":"1"}},{"base_weights":[3.134866E-4,-1.9106144E-2,4.0047252E-1,6.936185E-3,-2.8007481E-2,3.090009E-1,4.2611453E-1,-2.8153477E-2,3.8157862E-1,3.968743E-1,2.9835486E-1,4.763017E-1,3.8902307E-1,-2.5056396E-2,-4.3305706E-2,1.2897218E-2,4.8842418E-1,9.566314E-3,4.5594096E-1,2.7433082E-1,3.263E-1,4.9995092E-1,3.6269552E-1,4.2381513E-1,3.5241863E-1,-2.1682914E-2,-3.5103187E-2,-3.6265466E-2,-4.8385166E-2,9.150363E-3,5.597286E-1,8.811472E-3,4.8074666E-1,2.6531172E-1,3.443401E-1,3.648435E-1,2.929802E-1,5.193117E-1,3.9807385E-1,2.9233497E-1,4.001001E-1,4.325689E-1,1.2133495E-2,4.2313275E-1,3.3904693E-1,-1.49511E-3,-8.4470166E-4,-2.0329712E-3,-1.2000966E-3,-1.9820526E-3,-1.2885975E-3,-2.2412015E-3,-2.820621E-3,3.1169483E-2,6.0355826E-3,2.5261333E-2,7.317982E-3,1.0833664E-2,1.3548488E-2,1.888963E-2,9.739556E-3,1.590203E-2,2.092803E-2,1.4004538E-2,2.1184646E-2,2.6595755E-2,8.734868E-3,1.2609312E-2,2.9778285E-2,1.5413015E-2,8.211128E-3,2.144674E-2,1.3886596E-2,1.8334454E-2,2.322365E-2,2.4462402E-2,1.8667597E-2,1.5994664E-2,1.8301945E-2],"categories":[],"categories_nodes":[],"categories_segments":[],"categories_sizes":[],"default_left":[0,0,0,0,0,0,0,0,0,0,0,0,0,0,0,0,0,0,0,0,0,0,0,0,0,0,0,0,0,0,0,0,0,0,0,0,0,0,0,0,0,0,0,0,0,0,0,0,0,0,0,0,0,0,0,0,0,0,0,0,0,0,0,0,0,0,0,0,0,0,0,0,0,0,0,0,0,0,0],"id":5,"left_children":[1,3,5,-1,7,9,11,13,15,17,19,21,23,25,27,-1,29,-1,31,33,35,37,39,41,43,45,47,49,51,-1,53,-1,55,57,59,61,63,65,67,69,71,73,-1,75,77,-1,-1,-1,-1,-1,-1,-1,-1,-1,-1,-1,-1,-1,-1,-1,-1,-1,-1,-1,-1,-1,-1,-1,-1,-1,-1,-1,-1,-1,-1,-1,-1,-1,-1],"loss_changes":[4.0900003E2,7.0524086E1,5.5820007E0,0E0,2.8521614E0,3.839569E-1,3.3515625E0,2.2280273E0,9.857988E-2,5.805235E-1,2.3475266E-1,1.9761047E0,1.2490082E0,1.3360348E0,2.8647614E-1,0E0,7.1786165E-2,0E0,2.066927E-1,7.660103E-2,1.7307663E-1,1.0990143E0,2.5675583E-1,7.798462E-1,3.680954E-1,1.1618309E0,6.104698E-1,1.1877489E-1,1.3122654E-1,0E0,9.243953E-2,0E0,2.3711586E-1,7.335663E-3,6.1484337E-2,1.10749245E-1,8.687496E-2,2.3089142E0,3.019085E0,5.7508945E-2,1.9843102E-1,9.45755E-1,0E0,8.722305E-2,1.2071991E-1,0E0,0E0,0E0,0E0,0E0,0E0,0E0,0E0,0E0,0E0,0E0,0E0,0E0,0E0,0E0,0E0,0E0,0E0,0E0,0E0,0E0,0E0,0E0,0E0,0E0,0E0,0E0,0E0,0E0,0E0,0E0,0E0,0E0,0E0],"parents":[2147483647,0,0,1,1,2,2,4,4,5,5,6,6,7,7,8,8,9,9,10,10,11,11,12,12,13,13,14,14,16,16,18,18,19,19,20,20,21,21,22,22,23,23,24,24,25,25,26,26,27,27,28,28,30,30,32,32,33,33,34,34,35,35,36,36,37,37,38,38,39,39,40,40,41,41,43,43,44,44],"right_children":[2,4,6,-1,8,10,12,14,16,18,20,22,24,26,28,-1,30,-1,32,34,36,38,40,42,44,46,48,50,52,-1,54,-1,56,58,60,62,64,66,68,70,72,74,-1,76,78,-1,-1,-1,-1,-1,-1,-1,-1,-1,-1,-1,-1,-1,-1,-1,-1,-1,-1,-1,-1,-1,-1,-1,-1,-1,-1,-1,-1,-1,-1,-1,-1,-1,-1],"split_conditions":[1E0,1E0,-5.375061E0,6.936185E-3,4E0,-5.4519653E0,-5.342102E0,-5.2816772E0,5.6655387E-16,-5.4574585E0,6.45E2,9.659258E-1,6.123234E-17,8.85E2,-5.2651978E0,1.2897218E-2,-5.3860474E0,9.566314E-3,2.1E2,4.9E1,1E0,1E0,-5.3585815E0,-5.276184E0,-5.336609E0,-5.3860474E0,1.29E3,1E0,1E0,9.150363E-3,7.05E2,8.811472E-3,8.7E2,2.25E2,-5.380554E0,-5.3860474E0,1.365E3,-5.347595E0,-5.347595E0,1.2E2,-5.347595E0,-5.3256226E0,1.2133495E-2,1.8E2,2.85E2,-1.49511E-3,-8.4470166E-4,-2.0329712E-3,-1.2000966E-3,-1.9820526E-3,-1.2885975E-3,-2.2412015E-3,-2.820621E-3,3.1169483E-2,6.0355826E-3,2.5261333E-2,7.317982E-3,1.0833664E-2,1.3548488E-2,1.888963E-2,9.739556E-3,1.590203E-2,2.092803E-2,1.4004538E-2,2.1184646E-2,2.6595755E-2,8.734868E-3,1.2609312E-2,2.9778285E-2,1.5413015E-2,8.211128E-3,2.144674E-2,1.3886596E-2,1.8334454E-2,2.322365E-2,2.4462402E-2,1.8667597E-2,1.5994664E-2,1.8301945E-2],"split_indices":[18,19,3,0,1,3,3,3,10,3,7,9,9,7,3,0,3,0,7,0,36,33,3,3,3,3,7,37,34,0,7,0,7,7,3,3,7,3,3,7,3,3,0,7,7,0,0,0,0,0,0,0,0,0,0,0,0,0,0,0,0,0,0,0,0,0,0,0,0,0,0,0,0,0,0,0,0,0,0],"split_type":[0,0,0,0,0,0,0,0,0,0,0,0,0,0,0,0,0,0,0,0,0,0,0,0,0,0,0,0,0,0,0,0,0,0,0,0,0,0,0,0,0,0,0,0,0,0,0,0,0,0,0,0,0,0,0,0,0,0,0,0,0,0,0,0,0,0,0,0,0,0,0,0,0,0,0,0,0,0,0],"sum_hessian":[5.263E4,5.0195E4,2.435E3,2.679E3,4.7516E4,5.36E2,1.899E3,4.75E4,1.6E1,5.4E1,4.82E2,8.02E2,1.097E3,3.9441E4,8.059E3,9E0,7E0,1.3E1,4.1E1,2.65E2,2.17E2,6.61E2,1.41E2,5.57E2,5.4E2,2.9529E4,9.912E3,3.381E3,4.678E3,2E0,5E0,4E0,3.7E1,2.39E2,2.6E1,9.6E1,1.21E2,5.52E2,1.09E2,5.2E1,8.9E1,5.3E2,2.7E1,8.1E1,4.59E2,1.0869E4,1.866E4,6.604E3,3.308E3,2.556E3,8.25E2,3.245E3,1.433E3,4E0,1E0,3.4E1,3E0,2.9E1,2.1E2,2E1,6E0,5.5E1,4.1E1,1.13E2,8E0,5.32E2,2E1,6.4E1,4.5E1,4.5E1,7E0,7E1,1.9E1,1.77E2,3.53E2,3.1E1,5E1,2.76E2,1.83E2],"tree_param":{"num_deleted":"0","num_feature":"38","num_nodes":"79","size_leaf_vector":"1"}},{"base_weights":[-2.0889318E-4,-1.8258376E-2,3.814099E-1,1.3177514E-1,-2.6637936E-2,3.2421535E-1,4.397929E-1,1.384385E-1,6.535118E-3,-2.6773091E-2,3.7613583E-1,3.622898E-1,2.702184E-1,4.78218E-1,2.7151802E-1,6.9741705E-3,4.67304E-3,-5.174674E-2,-2.5076315E-2,1.2554412E-2,4.697974E-1,3.3620515E-1,4.401081E-1,2.608469E-1,3.3475146E-1,2.8413323E-1,5.0480855E-1,2.1054877E-1,4.269863E-1,-5.7239532E-2,-4.2777784E-2,-2.160428E-2,-4.072984E-2,2.9922707E-2,9.576359E-3,2.5016478E-1,3.4665677E-1,4.9472684E-1,2.9975092E-1,2.6494637E-1,8.527078E-3,2.8307742E-1,1.9184878E-2,1.3490381E-2,3.9765215E-1,5.515041E-1,4.281739E-1,1.9670138E-1,2.8082147E-1,1.2011787E-2,5.1222473E-1,-2.7642876E-3,-3.5431366E-3,-1.7390944E-3,-2.9267233E-3,-6.1483926E-4,-1.4144568E-3,-2.5351548E-3,-1.5248081E-3,1.1275287E-2,1.5842058E-2,9.1342935E-3,1.754607E-2,2.627843E-2,6.646137E-3,1.18339425E-2,1.967604E-2,1.2829899E-2,1.7355006E-2,1.4981838E-2,6.520891E-3,7.4057006E-3,2.1832397E-2,2.8711563E-2,2.2963226E-2,2.1795584E-2,9.629989E-3,1.1485978E-2,9.305607E-3,9.849901E-3,1.9931927E-2,3.1684704E-2,1.0092644E-2],"categories":[],"categories_nodes":[],"categories_segments":[],"categories_sizes":[],"default_left":[0,0,0,0,0,0,0,0,0,0,0,0,0,0,0,0,0,0,0,0,0,0,0,0,0,0,0,0,0,0,0,0,0,0,0,0,0,0,0,0,0,0,0,0,0,0,0,0,0,0,0,0,0,0,0,0,0,0,0,0,0,0,0,0,0,0,0,0,0,0,0,0,0,0,0,0,0,0,0,0,0,0,0],"id":6,"left_children":[1,3,5,7,9,11,13,15,-1,17,19,21,23,25,27,-1,-1,29,31,-1,33,35,37,39,41,43,45,47,49,51,53,55,57,-1,-1,59,61,63,65,67,-1,69,-1,-1,71,73,75,77,79,-1,81,-1,-1,-1,-1,-1,-1,-1,-1,-1,-1,-1,-1,-1,-1,-1,-1,-1,-1,-1,-1,-1,-1,-1,-1,-1,-1,-1,-1,-1,-1,-1,-1],"loss_changes":[3.6177966E2,6.305409E1,7.7779846E0,8.69751E-4,2.5957832E0,2.373291E0,7.441818E0,3.460884E-3,0E0,2.0108223E0,6.943393E-2,1.2770004E0,2.1567154E-1,4.7696533E0,1.9954319E0,0E0,0E0,1.4633083E-1,2.4157734E0,0E0,1.7179036E-1,3.8988495E-1,1.1779442E0,1.1844444E-1,4.3138504E-2,8.297825E-2,2.755478E0,1.0045767E-1,8.479624E-1,4.5855522E-2,1.42977E-1,2.264124E0,8.222046E-1,0E0,0E0,2.884531E-2,2.6455688E-1,1.3026562E0,2.0848942E-1,1.9967842E-1,0E0,4.4344187E-2,0E0,0E0,4.2366743E-2,8.1799316E-1,5.011711E-1,5.1469803E-3,1.5848887E-1,0E0,1.4178133E0,0E0,0E0,0E0,0E0,0E0,0E0,0E0,0E0,0E0,0E0,0E0,0E0,0E0,0E0,0E0,0E0,0E0,0E0,0E0,0E0,0E0,0E0,0E0,0E0,0E0,0E0,0E0,0E0,0E0,0E0,0E0,0E0],"parents":[2147483647,0,0,1,1,2,2,3,3,4,4,5,5,6,6,7,7,9,9,10,10,11,11,12,12,13,13,14,14,17,17,18,18,20,20,21,21,22,22,23,23,24,24,25,25,26,26,27,27,28,28,29,29,30,30,31,31,32,32,35,35,36,36,37,37,38,38,39,39,41,41,44,44,45,45,46,46,47,47,48,48,50,50],"right_children":[2,4,6,8,10,12,14,16,-1,18,20,22,24,26,28,-1,-1,30,32,-1,34,36,38,40,42,44,46,48,50,52,54,56,58,-1,-1,60,62,64,66,68,-1,70,-1,-1,72,74,76,78,80,-1,82,-1,-1,-1,-1,-1,-1,-1,-1,-1,-1,-1,-1,-1,-1,-1,-1,-1,-1,-1,-1,-1,-1,-1,-1,-1,-1,-1,-1,-1,-1,-1,-1],"split_conditions":[1E0,1E0,9.0807495E1,-5.413513E0,4E0,9.069763E1,9.086243E1,1.5E1,6.535118E-3,9.062073E1,5.6655387E-16,-5.3201294E0,-5.2871704E0,-5.375061E0,-5.2816772E0,6.9741705E-3,4.67304E-3,9.060974E1,-5.2816772E0,1.2554412E-2,1.6696245E1,9.065369E1,5E-1,-5.2981567E0,1.84452E1,1.6E1,5E-1,9.093933E1,6E0,-5.3311157E0,-5.347595E0,9.073059E1,9.0807495E1,2.9922707E-2,9.576359E-3,4.9E1,-5.4574585E0,-5.309143E0,9.0686646E1,-5.309143E0,8.527078E-3,1.6E1,1.9184878E-2,1.3490381E-2,4E0,1.5E1,9.085144E1,3E0,1.4E1,1.2011787E-2,-5.276184E0,-2.7642876E-3,-3.5431366E-3,-1.7390944E-3,-2.9267233E-3,-6.1483926E-4,-1.4144568E-3,-2.5351548E-3,-1.5248081E-3,1.1275287E-2,1.5842058E-2,9.1342935E-3,1.754607E-2,2.627843E-2,6.646137E-3,1.18339425E-2,1.967604E-2,1.2829899E-2,1.7355006E-2,1.4981838E-2,6.520891E-3,7.4057006E-3,2.1832397E-2,2.8711563E-2,2.2963226E-2,2.1795584E-2,9.629989E-3,1.1485978E-2,9.305607E-3,9.849901E-3,1.9931927E-2,3.1684704E-2,1.0092644E-2],"split_indices":[18,19,4,3,1,4,4,5,0,4,10,3,3,3,3,0,0,4,3,0,2,4,9,3,2,5,9,4,5,3,3,4,4,0,0,0,3,3,4,3,0,5,0,0,1,5,4,5,5,0,3,0,0,0,0,0,0,0,0,0,0,0,0,0,0,0,0,0,0,0,0,0,0,0,0,0,0,0,0,0,0,0,0],"split_type":[0,0,0,0,0,0,0,0,0,0,0,0,0,0,0,0,0,0,0,0,0,0,0,0,0,0,0,0,0,0,0,0,0,0,0,0,0,0,0,0,0,0,0,0,0,0,0,0,0,0,0,0,0,0,0,0,0,0,0,0,0,0,0,0,0,0,0,0,0,0,0,0,0,0,0,0,0,0,0,0,0,0,0],"sum_hessian":[5.2521E4,5.015E4,2.371E3,2.652E3,4.7498E4,1.201E3,1.17E3,3.5E2,2.302E3,4.7483E4,1.5E1,7.01E2,5E2,9.51E2,2.19E2,3.4E2,1E1,3.019E3,4.4464E4,8E0,7E0,5.29E2,1.72E2,4.41E2,5.9E1,1.16E2,8.35E2,1.59E2,6E1,1.869E3,1.15E3,3.6394E4,8.07E3,4E0,3E0,6E1,4.69E2,1.22E2,5E1,4.2E2,2.1E1,3.2E1,2.7E1,1.06E2,1E1,5.15E2,3.2E2,1.36E2,2.3E1,2E1,4E1,1.639E3,2.3E2,7.65E2,3.85E2,1.5214E4,2.118E4,4.085E3,3.985E3,4.7E1,1.3E1,1.3E1,4.56E2,1.12E2,1E1,3.2E1,1.8E1,3.85E2,3.5E1,2.8E1,4E0,2E0,8E0,4.09E2,1.06E2,3.09E2,1.1E1,2.8E1,1.08E2,1.5E1,8E0,2.8E1,1.2E1],"tree_param":{"num_deleted":"0","num_feature":"38","num_nodes":"83","size_leaf_vector":"1"}},{"base_weights":[-3.6694107E-4,-1.7354254E-2,3.579676E-1,6.264136E-3,-2.5255814E-2,2.7098894E-1,3.81879E-1,-2.2443073E-2,-3.903452E-2,2.4566767E-1,2.9332608E-1,4.2031986E-1,3.387828E-1,-3.7351172E-2,-1.9317355E-2,-3.9162856E-2,1.5919808E-2,8.453502E-3,2.4817567E-1,3.2428247E-1,2.646166E-1,4.4346425E-1,3.1709838E-1,3.7935108E-1,2.890739E-1,-4.7158502E-2,-3.4341525E-2,-2.790638E-2,-1.4545209E-2,-3.3390462E-2,-4.329875E-2,3.4315264E-1,1.1989238E-2,3.309922E-1,6.8020555E-3,2.5682953E-1,1.7687587E-2,3.2951084E-1,4.58947E-1,2.3668526E-1,3.720022E-1,1.9444053E-1,3.9292017E-1,2.687518E-1,3.1593993E-1,-1.939292E-3,-2.5965904E-3,-1.9410467E-3,-1.2659603E-3,-1.5636729E-3,-9.5952227E-4,-5.6020304E-4,-1.3836559E-3,-1.8084461E-3,-1.2052536E-3,-2.002324E-3,-2.5350275E-3,7.7571697E-3,1.9453377E-2,1.0828729E-2,1.7263748E-2,1.3919993E-2,1.0810825E-2,1.3650316E-2,2.0472033E-2,2.3810202E-2,1.6834574E-2,1.2486785E-2,8.796729E-3,2.4249597E-2,1.3592911E-2,9.888077E-3,2.038146E-3,1.9184673E-2,3.1715002E-2,9.410884E-3,1.4921854E-2,1.866498E-2,1.3256087E-2],"categories":[],"categories_nodes":[],"categories_segments":[],"categories_sizes":[],"default_left":[0,0,0,0,0,0,0,0,0,0,0,0,0,0,0,0,0,0,0,0,0,0,0,0,0,0,0,0,0,0,0,0,0,0,0,0,0,0,0,0,0,0,0,0,0,0,0,0,0,0,0,0,0,0,0,0,0,0,0,0,0,0,0,0,0,0,0,0,0,0,0,0,0,0,0,0,0,0,0],"id":7,"left_children":[1,3,5,-1,7,9,11,13,15,17,19,21,23,25,27,29,-1,-1,31,33,35,37,39,41,43,45,47,49,51,53,55,57,-1,59,-1,61,-1,63,65,67,69,71,73,75,77,-1,-1,-1,-1,-1,-1,-1,-1,-1,-1,-1,-1,-1,-1,-1,-1,-1,-1,-1,-1,-1,-1,-1,-1,-1,-1,-1,-1,-1,-1,-1,-1,-1,-1],"loss_changes":[3.196846E2,5.6514812E1,4.8401184E0,0E0,1.840416E0,2.1979523E-1,2.9422913E0,1.837965E0,3.818798E-1,5.6829453E-3,1.5325928E-1,2.200592E0,1.6709976E0,2.0021439E-1,1.3366671E0,1.9076347E-1,0E0,0E0,1.0739136E-1,1.128521E-1,9.791374E-3,1.2566986E0,7.198963E-1,1.1354828E0,1.3402557E-1,6.2049866E-2,2.1062803E-1,3.4129524E-1,9.195695E-1,8.594179E-2,1.10798836E-1,8.638978E-2,0E0,1.2132645E-1,0E0,5.9822083E-2,0E0,3.3534336E-1,1.3164978E0,1.710987E-2,1.0788813E0,9.801507E-3,7.5660706E-1,5.0564003E-1,3.878212E-1,0E0,0E0,0E0,0E0,0E0,0E0,0E0,0E0,0E0,0E0,0E0,0E0,0E0,0E0,0E0,0E0,0E0,0E0,0E0,0E0,0E0,0E0,0E0,0E0,0E0,0E0,0E0,0E0,0E0,0E0,0E0,0E0,0E0,0E0],"parents":[2147483647,0,0,1,1,2,2,4,4,5,5,6,6,7,7,8,8,9,9,10,10,11,11,12,12,13,13,14,14,15,15,18,18,19,19,20,20,21,21,22,22,23,23,24,24,25,25,26,26,27,27,28,28,29,29,30,30,31,31,33,33,35,35,37,37,38,38,39,39,40,40,41,41,42,42,43,43,44,44],"right_children":[2,4,6,-1,8,10,12,14,16,18,20,22,24,26,28,30,-1,-1,32,34,36,38,40,42,44,46,48,50,52,54,56,58,-1,60,-1,62,-1,64,66,68,70,72,74,76,78,-1,-1,-1,-1,-1,-1,-1,-1,-1,-1,-1,-1,-1,-1,-1,-1,-1,-1,-1,-1,-1,-1,-1,-1,-1,-1,-1,-1,-1,-1,-1,-1,-1,-1],"split_conditions":[1E0,1E0,-5.375061E0,6.264136E-3,-5.2816772E0,5.7E2,-5.336609E0,-5E-1,4E0,-5.4574585E0,1E0,1E0,1E0,-5.3860474E0,-5.3860474E0,-5.2651978E0,1.5919808E-2,8.453502E-3,-5.4519653E0,1E0,1.7E1,1.05E2,-5.347595E0,-5.3311157E0,-1.7145055E-15,9.9E2,-7.0710677E-1,1E0,-5.30365E0,1E0,1E0,2.1E2,1.1989238E-2,-5E-1,6.8020555E-3,1.3E1,1.7687587E-2,-5.3530884E0,9.45E2,8.660254E-1,-5.342102E0,2.762916E1,1.8E1,2.1E2,-5.3201294E0,-1.939292E-3,-2.5965904E-3,-1.9410467E-3,-1.2659603E-3,-1.5636729E-3,-9.5952227E-4,-5.6020304E-4,-1.3836559E-3,-1.8084461E-3,-1.2052536E-3,-2.002324E-3,-2.5350275E-3,7.7571697E-3,1.9453377E-2,1.0828729E-2,1.7263748E-2,1.3919993E-2,1.0810825E-2,1.3650316E-2,2.0472033E-2,2.3810202E-2,1.6834574E-2,1.2486785E-2,8.796729E-3,2.4249597E-2,1.3592911E-2,9.888077E-3,2.038146E-3,1.9184673E-2,3.1715002E-2,9.410884E-3,1.4921854E-2,1.866498E-2,1.3256087E-2],"split_indices":[18,19,3,0,3,7,3,8,1,3,36,33,16,3,3,3,0,0,3,35,5,7,3,3,12,7,8,33,3,37,34,7,0,8,0,5,0,3,7,8,3,2,5,7,3,0,0,0,0,0,0,0,0,0,0,0,0,0,0,0,0,0,0,0,0,0,0,0,0,0,0,0,0,0,0,0,0,0,0],"split_type":[0,0,0,0,0,0,0,0,0,0,0,0,0,0,0,0,0,0,0,0,0,0,0,0,0,0,0,0,0,0,0,0,0,0,0,0,0,0,0,0,0,0,0,0,0,0,0,0,0,0,0,0,0,0,0,0,0,0,0,0,0,0,0,0,0,0,0,0,0,0,0,0,0,0,0,0,0,0,0],"sum_hessian":[5.2516E4,5.014E4,2.376E3,2.631E3,4.7509E4,5.15E2,1.861E3,3.9457E4,8.052E3,2.47E2,2.68E2,9.79E2,8.82E2,6.837E3,3.262E4,8.05E3,2E0,1E1,2.37E2,1.24E2,1.44E2,7.97E2,1.82E2,4.82E2,4E2,1.602E3,5.235E3,1.1649E4,2.0971E4,3.364E3,4.686E3,1.6E1,2.21E2,1.19E2,5E0,1.36E2,8E0,9.8E1,6.99E2,7.6E1,1.06E2,3.4E1,4.48E2,2.34E2,1.66E2,5.85E2,1.017E3,3.496E3,1.739E3,8.401E3,3.248E3,1.6718E4,4.253E3,2.587E3,7.77E2,3.26E3,1.426E3,4E0,1.2E1,1.5E1,1.04E2,8.5E1,5.1E1,6E1,3.8E1,6.1E2,8.9E1,6E1,1.6E1,4.8E1,5.8E1,3.3E1,1E0,4.34E2,1.4E1,6.5E1,1.69E2,7.5E1,9.1E1],"tree_param":{"num_deleted":"0","num_feature":"38","num_nodes":"79","size_leaf_vector":"1"}},{"base_weights":[-4.5731405E-4,-1.6775047E-2,3.4458563E-1,5.967481E-3,-2.433352E-2,2.9356745E-1,3.972335E-1,-4.8680626E-2,-2.2693958E-2,3.3174402E-1,2.408741E-1,4.3258452E-1,2.4411449E-1,-5.3752907E-2,-4.048126E-2,-1.8214028E-2,-3.3387084E-2,1.0758358E-2,3.429534E-1,2.3281088E-1,2.988372E-1,3.17512E-1,4.691057E-1,1.822274E-1,3.8669434E-1,-5.1822014E-2,-3.3310712E-3,-3.290142E-2,-5.5302173E-2,-8.40092E-3,-2.5442135E-2,-2.8643314E-2,-4.1878548E-2,3.4718734E-1,5.6672115E-3,2.3662409E-1,7.358897E-3,7.7254325E-3,3.0933967E-1,2.683437E-1,3.6394316E-1,3.7477705E-1,5.0804E-1,1.6916418E-1,2.5814983E-1,2.2442551E-1,4.740759E-1,-2.8660947E-3,-2.35905E-3,-1.8057153E-3,2.0295952E-4,-2.8607878E-3,-2.1203384E-3,-2.103658E-3,-1.2697482E-4,-1.7266956E-3,-9.669848E-4,-2.0215998E-3,-1.2486371E-3,-2.4591542E-3,-1.6075477E-3,1.6156033E-2,2.069137E-2,1.14803575E-2,1.5492826E-2,1.5605538E-2,4.0618344E-3,1.2639128E-2,2.234107E-2,2.2787975E-2,1.4854793E-2,2.0394161E-2,1.191746E-2,2.412517E-2,3.0577231E-2,8.66739E-3,6.3476437E-3,1.745679E-2,8.040786E-3,7.6776654E-3,1.243723E-2,2.9985726E-2,8.998095E-3],"categories":[],"categories_nodes":[],"categories_segments":[],"categories_sizes":[],"default_left":[0,0,0,0,0,0,0,0,0,0,0,0,0,0,0,0,0,0,0,0,0,0,0,0,0,0,0,0,0,0,0,0,0,0,0,0,0,0,0,0,0,0,0,0,0,0,0,0,0,0,0,0,0,0,0,0,0,0,0,0,0,0,0,0,0,0,0,0,0,0,0,0,0,0,0,0,0,0,0,0,0,0,0],"id":8,"left_children":[1,3,5,-1,7,9,11,13,15,17,19,21,23,25,27,29,31,-1,33,35,37,39,41,43,45,47,-1,49,51,53,55,57,59,61,-1,63,-1,-1,65,67,69,71,73,75,77,79,81,-1,-1,-1,-1,-1,-1,-1,-1,-1,-1,-1,-1,-1,-1,-1,-1,-1,-1,-1,-1,-1,-1,-1,-1,-1,-1,-1,-1,-1,-1,-1,-1,-1,-1,-1,-1],"loss_changes":[2.9612677E2,5.167399E1,6.2626343E0,0E0,1.89818E0,2.354187E0,6.2058563E0,1.22633934E-1,2.134924E0,8.3963776E-1,1.697216E-1,3.8266907E0,1.8796053E0,4.254055E-2,1.2748408E-1,2.228342E0,5.289459E-1,0E0,5.789261E-1,1.1341858E-1,4.1636944E-2,4.2969894E-1,2.4391937E0,1.1104965E-1,8.294401E-1,3.8493156E-2,0E0,9.087169E-2,7.1481466E-3,2.6304038E0,1.0031128E0,3.6450243E-1,3.3344555E-1,8.670578E-1,0E0,1.5135956E-1,0E0,0E0,8.778095E-3,2.0921993E-1,5.765648E-1,8.648186E-1,1.0370789E0,2.010107E-3,1.2983036E-1,4.893303E-3,1.4440613E0,0E0,0E0,0E0,0E0,0E0,0E0,0E0,0E0,0E0,0E0,0E0,0E0,0E0,0E0,0E0,0E0,0E0,0E0,0E0,0E0,0E0,0E0,0E0,0E0,0E0,0E0,0E0,0E0,0E0,0E0,0E0,0E0,0E0,0E0,0E0,0E0],"parents":[2147483647,0,0,1,1,2,2,4,4,5,5,6,6,7,7,8,8,9,9,10,10,11,11,12,12,13,13,14,14,15,15,16,16,18,18,19,19,20,20,21,21,22,22,23,23,24,24,25,25,27,27,28,28,29,29,30,30,31,31,32,32,33,33,35,35,38,38,39,39,40,40,41,41,42,42,43,43,44,44,45,45,46,46],"right_children":[2,4,6,-1,8,10,12,14,16,18,20,22,24,26,28,30,32,-1,34,36,38,40,42,44,46,48,-1,50,52,54,56,58,60,62,-1,64,-1,-1,66,68,70,72,74,76,78,80,82,-1,-1,-1,-1,-1,-1,-1,-1,-1,-1,-1,-1,-1,-1,-1,-1,-1,-1,-1,-1,-1,-1,-1,-1,-1,-1,-1,-1,-1,-1,-1,-1,-1,-1,-1,-1],"split_conditions":[1E0,1E0,9.0807495E1,5.967481E-3,9.062073E1,9.069763E1,9.086243E1,9.060974E1,-5.30365E0,9.065369E1,-5.2871704E0,-5.3640747E0,-5.2816772E0,-5.3311157E0,-5.347595E0,9.073059E1,-5.2651978E0,1.0758358E-2,-5.309143E0,-5.2981567E0,-8.660254E-1,-5.375061E0,2.7E2,9.093933E1,3.75E2,9.0598755E1,-3.3310712E-3,-5.3530884E0,1.29E3,-7.0710677E-1,-5.3860474E0,9.069763E1,9.0807495E1,-5.3201294E0,5.6672115E-3,-5.309143E0,7.358897E-3,7.7254325E-3,-5.270691E0,1.6E1,-5.369568E0,-5.336609E0,-5.3311157E0,1E0,1.2246469E-16,9E1,-5.276184E0,-2.8660947E-3,-2.35905E-3,-1.8057153E-3,2.0295952E-4,-2.8607878E-3,-2.1203384E-3,-2.103658E-3,-1.2697482E-4,-1.7266956E-3,-9.669848E-4,-2.0215998E-3,-1.2486371E-3,-2.4591542E-3,-1.6075477E-3,1.6156033E-2,2.069137E-2,1.14803575E-2,1.5492826E-2,1.5605538E-2,4.0618344E-3,1.2639128E-2,2.234107E-2,2.2787975E-2,1.4854793E-2,2.0394161E-2,1.191746E-2,2.412517E-2,3.0577231E-2,8.66739E-3,6.3476437E-3,1.745679E-2,8.040786E-3,7.6776654E-3,1.243723E-2,2.9985726E-2,8.998095E-3],"split_indices":[18,19,4,0,4,4,4,4,3,4,3,3,3,3,3,4,3,0,3,3,8,3,7,4,7,4,0,3,7,8,3,4,4,3,0,3,0,0,3,5,3,3,3,15,8,7,3,0,0,0,0,0,0,0,0,0,0,0,0,0,0,0,0,0,0,0,0,0,0,0,0,0,0,0,0,0,0,0,0,0,0,0,0],"split_type":[0,0,0,0,0,0,0,0,0,0,0,0,0,0,0,0,0,0,0,0,0,0,0,0,0,0,0,0,0,0,0,0,0,0,0,0,0,0,0,0,0,0,0,0,0,0,0,0,0,0,0,0,0,0,0,0,0,0,0,0,0,0,0,0,0,0,0,0,0,0,0,0,0,0,0,0,0,0,0,0,0,0,0],"sum_hessian":[5.2593E4,5.0219E4,2.374E3,2.641E3,4.7578E4,1.209E3,1.165E3,3E3,4.4578E4,6.98E2,5.11E2,9.45E2,2.2E2,1.85E3,1.15E3,3.1418E4,1.316E4,6.3E1,6.35E2,4.53E2,5.8E1,2.3E2,7.15E2,1.55E2,6.5E1,1.613E3,2.37E2,7.63E2,3.87E2,1.3327E4,1.8091E4,8.446E3,4.714E3,6.23E2,1.2E1,4.32E2,2.1E1,5E0,5.3E1,1.15E2,1.15E2,2.12E2,5.03E2,1.35E2,2E1,2.4E1,4.1E1,7.33E2,8.8E2,7.02E2,6.1E1,3.34E2,5.3E1,1.975E3,1.1352E4,7.264E3,1.0827E4,2.003E3,6.443E3,2.69E3,2.024E3,4.62E2,1.61E2,3.98E2,3.4E1,5.2E1,1E0,1.08E2,7E0,4.6E1,6.9E1,1.69E2,4.3E1,4.08E2,9.5E1,1.2E2,1.5E1,9E0,1.1E1,8E0,1.6E1,2.8E1,1.3E1],"tree_param":{"num_deleted":"0","num_feature":"38","num_nodes":"83","size_leaf_vector":"1"}},{"base_weights":[-7.43149E-5,-8.078458E-3,3.2794866E-1,-1.460668E-2,5.6600366E-3,2.4847922E-1,3.5087794E-1,-2.3206964E-2,1.5668047E-3,2.1708979E-1,2.7320275E-1,3.929897E-1,3.24596E-1,-2.0711109E-2,-3.524378E-2,3.2901698E-1,-1.0182361E-2,3.1768066E-1,2.0966054E-1,8.229001E-3,2.7955893E-1,4.1315168E-1,2.1231158E-1,3.5474822E-1,2.8609434E-1,-3.3989184E-2,-1.790957E-2,-3.345586E-2,-4.6177622E-2,2.3678999E-1,3.515197E-1,-3.7545688E-3,-2.570208E-2,1.9657344E-2,4.3005026E-3,7.563771E-3,2.1456543E-1,2.5437066E-1,3.282387E-1,4.378187E-1,2.6626006E-1,1.1007298E-2,5.750433E-3,5.270594E-1,3.449936E-1,2.5329825E-1,3.2809517E-1,-2.1764012E-3,-1.5461625E-3,-1.2954348E-3,-6.707833E-4,-1.4194791E-3,-1.8525027E-3,-2.521652E-3,-2.0480377E-3,1.2807702E-2,9.984243E-3,1.4095113E-2,1.9265829E-2,-9.2685793E-4,5.7761295E-4,-9.825098E-4,-1.9397073E-3,1.3621508E-2,1.0278299E-2,1.772765E-2,1.169696E-2,1.6682697E-2,2.1137872E-3,2.306755E-2,1.6265694E-2,1.1533634E-2,1.9277116E-2,4.559397E-3,3.1031532E-2,1.417048E-2,1.9035276E-2,6.124565E-3,1.3216661E-2,1.8382287E-2,1.1554564E-2],"categories":[],"categories_nodes":[],"categories_segments":[],"categories_sizes":[],"default_left":[0,0,0,0,0,0,0,0,0,0,0,0,0,0,0,0,0,0,0,0,0,0,0,0,0,0,0,0,0,0,0,0,0,0,0,0,0,0,0,0,0,0,0,0,0,0,0,0,0,0,0,0,0,0,0,0,0,0,0,0,0,0,0,0,0,0,0,0,0,0,0,0,0,0,0,0,0,0,0,0,0],"id":9,"left_children":[1,3,5,7,-1,9,11,13,15,17,19,21,23,25,27,29,31,33,35,-1,37,39,41,43,45,47,49,51,53,55,57,59,61,-1,-1,-1,63,65,67,69,71,-1,-1,73,75,77,79,-1,-1,-1,-1,-1,-1,-1,-1,-1,-1,-1,-1,-1,-1,-1,-1,-1,-1,-1,-1,-1,-1,-1,-1,-1,-1,-1,-1,-1,-1,-1,-1,-1,-1],"loss_changes":[1.3811145E2,4.065737E1,2.1960144E0,6.777934E0,0E0,1.6109085E-1,9.460144E-1,9.549694E-1,6.5087555E1,3.0546188E-2,6.1006546E-2,1.2528458E0,5.9853363E-1,9.796238E-1,1.0523081E-1,1.1329231E0,1.6291435E0,8.856857E-2,3.0517578E-3,0E0,9.429836E-2,1.0791397E0,4.4112206E-3,3.7956238E-1,2.8880882E-1,1.328907E-1,7.819376E-1,8.449459E-2,1.4917135E-2,3.363371E-2,9.948654E-1,2.6136851E0,3.7820268E-1,0E0,0E0,0E0,2.3212433E-3,1.21744156E-1,5.712843E-2,5.938606E-1,1.2331319E-1,0E0,0E0,5.9596586E-1,5.936775E-1,1.9279861E-1,3.562441E-1,0E0,0E0,0E0,0E0,0E0,0E0,0E0,0E0,0E0,0E0,0E0,0E0,0E0,0E0,0E0,0E0,0E0,0E0,0E0,0E0,0E0,0E0,0E0,0E0,0E0,0E0,0E0,0E0,0E0,0E0,0E0,0E0,0E0,0E0],"parents":[2147483647,0,0,1,1,2,2,3,3,5,5,6,6,7,7,8,8,9,9,10,10,11,11,12,12,13,13,14,14,15,15,16,16,17,17,18,18,20,20,21,21,22,22,23,23,24,24,25,25,26,26,27,27,28,28,29,29,30,30,31,31,32,32,36,36,37,37,38,38,39,39,40,40,43,43,44,44,45,45,46,46],"right_children":[2,4,6,8,-1,10,12,14,16,18,20,22,24,26,28,30,32,34,36,-1,38,40,42,44,46,48,50,52,54,56,58,60,62,-1,-1,-1,64,66,68,70,72,-1,-1,74,76,78,80,-1,-1,-1,-1,-1,-1,-1,-1,-1,-1,-1,-1,-1,-1,-1,-1,-1,-1,-1,-1,-1,-1,-1,-1,-1,-1,-1,-1,-1,-1,-1,-1,-1,-1],"split_conditions":[4E0,1E0,-5.375061E0,2E0,5.6600366E-3,5.7E2,-5.347595E0,-5.2816772E0,3E0,7.5E1,-5E-1,1E0,1E0,-5E-1,1.05E3,-5.375061E0,-5.309143E0,-5.380554E0,1.35E2,8.229001E-3,-5.402527E0,9.659258E-1,8.7E2,-5.342102E0,-1.7145055E-15,-5.3860474E0,-5.3860474E0,-5.2651978E0,1.35E3,2.5881904E-1,1E0,-5.369568E0,-5.2651978E0,1.9657344E-2,4.3005026E-3,7.563771E-3,-5.4519653E0,-5.4519653E0,1.425E3,8.7E2,-5.3530884E0,1.1007298E-2,5.750433E-3,1E0,-5.3256226E0,-5.342102E0,-5.314636E0,-2.1764012E-3,-1.5461625E-3,-1.2954348E-3,-6.707833E-4,-1.4194791E-3,-1.8525027E-3,-2.521652E-3,-2.0480377E-3,1.2807702E-2,9.984243E-3,1.4095113E-2,1.9265829E-2,-9.2685793E-4,5.7761295E-4,-9.825098E-4,-1.9397073E-3,1.3621508E-2,1.0278299E-2,1.772765E-2,1.169696E-2,1.6682697E-2,2.1137872E-3,2.306755E-2,1.6265694E-2,1.1533634E-2,1.9277116E-2,4.559397E-3,3.1031532E-2,1.417048E-2,1.9035276E-2,6.124565E-3,1.3216661E-2,1.8382287E-2,1.1554564E-2],"split_indices":[1,20,3,14,0,7,3,3,1,7,8,33,16,8,7,3,3,3,7,0,3,9,7,3,12,3,3,3,7,9,36,3,3,0,0,0,3,3,7,7,3,0,0,33,3,3,3,0,0,0,0,0,0,0,0,0,0,0,0,0,0,0,0,0,0,0,0,0,0,0,0,0,0,0,0,0,0,0,0,0,0],"split_type":[0,0,0,0,0,0,0,0,0,0,0,0,0,0,0,0,0,0,0,0,0,0,0,0,0,0,0,0,0,0,0,0,0,0,0,0,0,0,0,0,0,0,0,0,0,0,0,0,0,0,0,0,0,0,0,0,0,0,0,0,0,0,0,0,0,0,0,0,0,0,0,0,0,0,0,0,0,0,0,0,0],"sum_hessian":[5.2601E4,5.1349E4,1.252E3,4.8727E4,2.622E3,2.83E2,9.69E2,3.1811E4,1.6916E4,1.29E2,1.54E2,3.67E2,6.02E2,2.635E4,5.461E3,5.85E2,1.6331E4,6E0,1.23E2,1E1,1.44E2,3.29E2,3.8E1,3.33E2,2.69E2,4.589E3,2.1761E4,4.697E3,7.64E2,1.17E2,4.68E2,1.1549E4,4.782E3,4E0,2E0,1.2E1,1.11E2,9.9E1,4.5E1,2.8E2,4.9E1,3.4E1,4E0,1.5E1,3.18E2,1.55E2,1.14E2,1.113E3,3.476E3,7.826E3,1.3935E4,1.953E3,2.744E3,4.16E2,3.48E2,7.3E1,4.4E1,1.56E2,3.12E2,5.875E3,5.674E3,3.272E3,1.51E3,1.1E1,1E2,1.4E1,8.5E1,4.4E1,1E0,2.29E2,5.1E1,4E1,9E0,3E0,1.2E1,1.2E2,1.98E2,1.3E1,1.42E2,7.9E1,3.5E1],"tree_param":{"num_deleted":"0","num_feature":"38","num_nodes":"81","size_leaf_vector":"1"}},{"base_weights":[-1.4058841E-4,-1.5077611E-2,3.108228E-1,1.0720824E-1,-2.1949343E-2,2.6391298E-1,3.5937884E-1,1.1354608E-1,1.0633762E-1,-3.9291803E-2,-1.972219E-2,2.9884583E-1,2.156831E-1,3.9137226E-1,2.204682E-1,1.2035574E-1,1.0433457E-1,1.1197933E-1,1.0533817E-1,-5.0167866E-2,-3.3618923E-2,-2.3219023E-2,-7.104501E-3,1.9576947E-1,3.080736E-1,2.3016898E-1,1.9747554E-1,2.8790116E-1,4.2854783E-1,1.6409925E-1,3.579457E-1,9.917136E-2,1.2473467E-1,3.395679E-3,5.3174556E-3,5.670846E-3,4.4192667E-3,9.792295E-2,1.0637317E-1,-4.8388124E-2,-3.1327978E-3,-2.5925923E-2,-4.5903098E-2,-2.332815E-2,3.05129E-1,-3.8298093E-2,-1.0551669E-3,2.501077E-1,8.940646E-3,3.2095155E-1,2.211959E-1,2.8001747E-1,2.2446868E-1,1.896853E-1,2.2649871E-1,2.4368452E-1,3.3089536E-1,3.3920458E-1,4.6703196E-1,1.4895807E-1,2.3316658E-1,9.404288E-3,4.3088013E-1,6.2916353E-3,4.2269984E-3,6.746662E-3,5.4482417E-3,5.0019347E-3,3.5886054E-3,5.216994E-3,5.5400687E-3,-2.693267E-3,-2.1948053E-3,-2.3571565E-3,-1.021168E-3,-2.6258794E-3,-1.9262417E-3,-1.0512831E-3,-1.8617358E-3,1.0004844E-2,1.9557407E-2,-2.2425388E-3,-1.5520735E-3,2.8371878E-4,-1.3137306E-3,1.4831059E-2,6.2832306E-3,1.6280124E-2,4.956731E-3,8.894812E-3,1.417301E-2,4.268925E-3,1.5133915E-2,1.1288422E-2,5.664323E-3,9.652606E-3,4.970106E-3,7.5626248E-3,1.2463878E-2,1.1617098E-2,1.6792892E-2,2.0980217E-2,1.2865186E-2,1.2475311E-2,1.8696109E-2,2.3600636E-2,2.8675979E-3,9.428966E-3,6.760118E-3,8.365562E-3,1.6419476E-2,2.7231533E-2,7.411338E-3],"categories":[],"categories_nodes":[],"categories_segments":[],"categories_sizes":[],"default_left":[0,0,0,0,0,0,0,0,0,0,0,0,0,0,0,0,0,0,0,0,0,0,0,0,0,0,0,0,0,0,0,0,0,0,0,0,0,0,0,0,0,0,0,0,0,0,0,0,0,0,0,0,0,0,0,0,0,0,0,0,0,0,0,0,0,0,0,0,0,0,0,0,0,0,0,0,0,0,0,0,0,0,0,0,0,0,0,0,0,0,0,0,0,0,0,0,0,0,0,0,0,0,0,0,0,0,0,0,0,0,0,0,0],"id":10,"left_children":[1,3,5,7,9,11,13,15,17,19,21,23,25,27,29,31,33,35,37,39,41,43,45,47,49,51,53,55,57,59,61,63,65,-1,-1,-1,-1,67,69,71,-1,73,75,77,79,81,83,85,-1,87,89,91,93,95,97,99,101,103,105,107,109,-1,111,-1,-1,-1,-1,-1,-1,-1,-1,-1,-1,-1,-1,-1,-1,-1,-1,-1,-1,-1,-1,-1,-1,-1,-1,-1,-1,-1,-1,-1,-1,-1,-1,-1,-1,-1,-1,-1,-1,-1,-1,-1,-1,-1,-1,-1,-1,-1,-1,-1,-1],"loss_changes":[2.4373018E2,4.207527E1,5.3831635E0,2.626419E-3,1.8302097E0,2.0028076E0,5.1534576E0,6.7002773E-3,1.5010834E-3,3.3111668E-1,1.8534889E0,6.140671E-1,9.143257E-2,3.5578156E0,1.6693916E0,3.399849E-3,2.9027462E-3,1.4739037E-3,5.086899E-3,3.8018703E-2,3.3410358E-1,1.1857891E0,1.7205305E0,1.1482477E-2,6.551094E-1,1.7560005E-2,1.0622025E-2,4.0603828E-1,2.2552643E0,1.3258982E-1,7.118292E-1,2.6252568E-3,7.330656E-3,0E0,0E0,0E0,0E0,7.2054863E-3,4.293442E-3,3.7518263E-2,0E0,2.54017E-1,6.4593315E-2,1.052185E0,2.1114945E-2,6.902981E-2,1.2964348E0,3.218454E-2,0E0,5.48542E-1,1.8412733E-1,8.4424734E-2,1.1852264E-2,3.9475918E-2,3.942728E-2,5.7878494E-2,7.2112083E-1,5.7623863E-1,9.686966E-1,4.7536135E-2,1.1437225E-1,0E0,1.3339586E0,0E0,0E0,0E0,0E0,0E0,0E0,0E0,0E0,0E0,0E0,0E0,0E0,0E0,0E0,0E0,0E0,0E0,0E0,0E0,0E0,0E0,0E0,0E0,0E0,0E0,0E0,0E0,0E0,0E0,0E0,0E0,0E0,0E0,0E0,0E0,0E0,0E0,0E0,0E0,0E0,0E0,0E0,0E0,0E0,0E0,0E0,0E0,0E0,0E0,0E0],"parents":[2147483647,0,0,1,1,2,2,3,3,4,4,5,5,6,6,7,7,8,8,9,9,10,10,11,11,12,12,13,13,14,14,15,15,16,16,17,17,18,18,19,19,20,20,21,21,22,22,23,23,24,24,25,25,26,26,27,27,28,28,29,29,30,30,31,31,32,32,37,37,38,38,39,39,41,41,42,42,43,43,44,44,45,45,46,46,47,47,49,49,50,50,51,51,52,52,53,53,54,54,55,55,56,56,57,57,58,58,59,59,60,60,62,62],"right_children":[2,4,6,8,10,12,14,16,18,20,22,24,26,28,30,32,34,36,38,40,42,44,46,48,50,52,54,56,58,60,62,64,66,-1,-1,-1,-1,68,70,72,-1,74,76,78,80,82,84,86,-1,88,90,92,94,96,98,100,102,104,106,108,110,-1,112,-1,-1,-1,-1,-1,-1,-1,-1,-1,-1,-1,-1,-1,-1,-1,-1,-1,-1,-1,-1,-1,-1,-1,-1,-1,-1,-1,-1,-1,-1,-1,-1,-1,-1,-1,-1,-1,-1,-1,-1,-1,-1,-1,-1,-1,-1,-1,-1,-1,-1],"split_conditions":[1E0,1E0,9.0807495E1,9.066467E1,9.06427E1,9.069763E1,9.086243E1,5E-1,-5.413513E0,9.060974E1,1E0,9.065369E1,5E-1,-5.3640747E0,-5.2816772E0,9.06427E1,9.0631714E1,8.55E2,-5.375061E0,-5.3311157E0,-5.342102E0,4E0,-7.0710677E-1,2E0,9.15E2,4.5E1,-5.309143E0,-5.375061E0,2.7E2,8.25E2,3.45E2,9.062073E1,-5.347595E0,3.395679E-3,5.3174556E-3,5.670846E-3,4.4192667E-3,9.087341E1,8.660254E-1,9.0598755E1,-3.1327978E-3,-5E-1,1E0,-5.2651978E0,5.6655387E-16,-5.342102E0,-5.30365E0,-5.347595E0,8.940646E-3,-5.309143E0,1.395E3,-5.336609E0,1E0,-5.3201294E0,3.3E2,1.5E1,-5.369568E0,9.081848E1,-5.2816772E0,1.35E2,9.0928345E1,9.404288E-3,-5.276184E0,6.2916353E-3,4.2269984E-3,6.746662E-3,5.4482417E-3,5.0019347E-3,3.5886054E-3,5.216994E-3,5.5400687E-3,-2.693267E-3,-2.1948053E-3,-2.3571565E-3,-1.021168E-3,-2.6258794E-3,-1.9262417E-3,-1.0512831E-3,-1.8617358E-3,1.0004844E-2,1.9557407E-2,-2.2425388E-3,-1.5520735E-3,2.8371878E-4,-1.3137306E-3,1.4831059E-2,6.2832306E-3,1.6280124E-2,4.956731E-3,8.894812E-3,1.417301E-2,4.268925E-3,1.5133915E-2,1.1288422E-2,5.664323E-3,9.652606E-3,4.970106E-3,7.5626248E-3,1.2463878E-2,1.1617098E-2,1.6792892E-2,2.0980217E-2,1.2865186E-2,1.2475311E-2,1.8696109E-2,2.3600636E-2,2.8675979E-3,9.428966E-3,6.760118E-3,8.365562E-3,1.6419476E-2,2.7231533E-2,7.411338E-3],"split_indices":[18,19,4,4,4,4,4,9,3,4,33,4,8,3,3,4,4,7,3,3,3,14,8,5,7,7,3,3,7,7,7,4,3,0,0,0,0,4,9,4,0,8,16,3,10,3,3,3,0,3,7,3,35,3,7,5,3,4,3,7,4,0,3,0,0,0,0,0,0,0,0,0,0,0,0,0,0,0,0,0,0,0,0,0,0,0,0,0,0,0,0,0,0,0,0,0,0,0,0,0,0,0,0,0,0,0,0,0,0,0,0,0,0],"split_type":[0,0,0,0,0,0,0,0,0,0,0,0,0,0,0,0,0,0,0,0,0,0,0,0,0,0,0,0,0,0,0,0,0,0,0,0,0,0,0,0,0,0,0,0,0,0,0,0,0,0,0,0,0,0,0,0,0,0,0,0,0,0,0,0,0,0,0,0,0,0,0,0,0,0,0,0,0,0,0,0,0,0,0,0,0,0,0,0,0,0,0,0,0,0,0,0,0,0,0,0,0,0,0,0,0,0,0,0,0,0,0,0,0],"sum_hessian":[5.2471E4,5.0067E4,2.404E3,2.663E3,4.7404E4,1.226E3,1.178E3,3.06E2,2.357E3,5.393E3,4.2011E4,7.08E2,5.18E2,9.56E2,2.22E2,1.69E2,1.37E2,3.38E2,2.019E3,1.846E3,3.547E3,3.2894E4,9.117E3,6E1,6.48E2,2.82E2,2.36E2,2.55E2,7.01E2,1.59E2,6.3E1,3.3E1,1.36E2,9E0,1.28E2,3.15E2,2.3E1,2.59E2,1.76E3,1.62E3,2.26E2,2.183E3,1.364E3,3.2884E4,1E1,1.48E3,7.637E3,1.1E1,4.9E1,5.62E2,8.6E1,2.4E1,2.58E2,1.92E2,4.4E1,1.29E2,1.26E2,2.14E2,4.87E2,1.33E2,2.6E1,2E1,4.3E1,9E0,2.4E1,7.8E1,5.8E1,2.37E2,2.2E1,1.223E3,5.37E2,7.25E2,8.95E2,4.48E2,1.735E3,7.16E2,6.48E2,2.8215E4,4.669E3,6E0,4E0,7.75E2,7.05E2,6.029E3,1.608E3,7E0,4E0,5.5E2,1.2E1,5.3E1,3.3E1,3E0,2.1E1,2.54E2,4E0,1.84E2,8E0,1.2E1,3.2E1,1.18E2,1.1E1,5.5E1,7.1E1,6.2E1,1.52E2,4.81E2,6E0,3.1E1,1.02E2,1.7E1,9E0,3E1,1.3E1],"tree_param":{"num_deleted":"0","num_feature":"38","num_nodes":"113","size_leaf_vector":"1"}},{"base_weights":[-2.7439296E-6,-1.4426973E-2,2.9869178E-1,-3.4212861E-3,-2.0868817E-2,2.548938E-1,3.4371406E-1,1.0269417E-1,-2.1288408E-2,-2.1057047E-2,3.0971417E-1,2.8749895E-1,2.091059E-1,3.750403E-1,2.0353664E-1,5.150565E-3,8.749899E-2,-4.3097917E-2,-1.9790597E-2,-3.798978E-2,-1.889014E-2,3.2774785E-1,5.514824E-3,2.683806E-1,3.4709895E-1,2.2565417E-1,1.8986946E-1,2.2107081E-1,3.977913E-1,1.5201105E-1,3.2595003E-1,1.2851477E-3,4.4050273E-3,-5.2765388E-2,-3.9500806E-2,-1.5673367E-2,-2.846682E-2,-4.6879634E-2,-3.3337563E-2,-1.4639983E-2,-2.8668143E-2,3.8752475E-1,1.0976519E-2,1.8986748E-1,2.782488E-1,2.9303244E-1,4.3655294E-1,1.4648108E-1,2.2844042E-1,1.852452E-1,1.515647E-2,2.0879647E-1,3.588013E-1,4.2830616E-1,3.2772022E-1,1.8634571E-1,1.3405748E-1,3.789919E-1,7.1568713E-3,-2.146169E-3,-2.8698237E-3,-1.7016785E-3,-2.5271138E-3,-3.4089177E-4,-1.1160393E-3,-1.2590186E-3,-1.7742725E-3,-2.2592244E-3,-3.0006012E-3,-1.2726454E-3,-2.285548E-3,-1.01748425E-4,-1.1090444E-3,-1.4397638E-3,1.23660695E-2,2.0449946E-2,5.3932844E-3,8.566571E-3,1.2470327E-2,1.6852824E-2,1.3240436E-2,7.89944E-3,1.7355135E-2,2.4410283E-2,3.9065364E-3,7.881817E-3,3.023492E-3,3.6386761E-3,1.1468253E-2,8.888108E-3,1.2212525E-2,9.824163E-3,1.3789127E-2,8.231133E-3,2.1422675E-2,2.2394177E-2,1.5405311E-2,1.6862182E-2,6.0416707E-3,7.818966E-3,1.2718633E-2,8.449065E-3,5.79776E-3,1.02711795E-2,2.6231607E-2],"categories":[],"categories_nodes":[],"categories_segments":[],"categories_sizes":[],"default_left":[0,0,0,0,0,0,0,0,0,0,0,0,0,0,0,0,0,0,0,0,0,0,0,0,0,0,0,0,0,0,0,0,0,0,0,0,0,0,0,0,0,0,0,0,0,0,0,0,0,0,0,0,0,0,0,0,0,0,0,0,0,0,0,0,0,0,0,0,0,0,0,0,0,0,0,0,0,0,0,0,0,0,0,0,0,0,0,0,0,0,0,0,0,0,0,0,0,0,0,0,0,0,0,0,0],"id":11,"left_children":[1,3,5,7,9,11,13,15,17,19,21,23,25,27,29,-1,31,33,35,37,39,41,-1,43,45,47,49,51,53,55,57,-1,-1,59,61,63,65,67,69,71,73,75,-1,77,79,81,83,85,87,89,-1,91,93,95,97,99,101,103,-1,-1,-1,-1,-1,-1,-1,-1,-1,-1,-1,-1,-1,-1,-1,-1,-1,-1,-1,-1,-1,-1,-1,-1,-1,-1,-1,-1,-1,-1,-1,-1,-1,-1,-1,-1,-1,-1,-1,-1,-1,-1,-1,-1,-1,-1,-1],"loss_changes":[2.2568031E2,3.5425053E0,4.670532E0,3.4982975E1,1.9678135E0,1.7716904E0,5.1360626E0,3.7975311E-3,5.1501656E-1,1.1551428E0,2.8582811E-2,7.2042084E-1,1.2077522E-1,3.3064423E0,1.3317776E0,0E0,3.1292439E-6,3.3177614E-2,5.274887E-1,1.4620781E-1,1.1602964E0,1.8428922E-2,0E0,3.694229E-1,6.942749E-1,2.6319504E-2,7.1640015E-2,1.397829E-1,1.6621399E0,7.118201E-2,5.6634235E-1,0E0,0E0,9.933889E-3,4.3132067E-2,5.8998394E-1,1.0878754E-1,2.4558544E-2,2.2800493E-1,1.8506413E0,3.039956E-1,9.932041E-3,0E0,2.7900457E-2,2.917099E-1,7.410612E-1,1.1096916E0,1.9814968E-3,2.0731926E-2,6.122589E-2,0E0,4.3966293E-2,5.119157E-2,1.2362671E0,4.7152138E-1,6.4186096E-2,4.741907E-2,1.1308765E0,0E0,0E0,0E0,0E0,0E0,0E0,0E0,0E0,0E0,0E0,0E0,0E0,0E0,0E0,0E0,0E0,0E0,0E0,0E0,0E0,0E0,0E0,0E0,0E0,0E0,0E0,0E0,0E0,0E0,0E0,0E0,0E0,0E0,0E0,0E0,0E0,0E0,0E0,0E0,0E0,0E0,0E0,0E0,0E0,0E0,0E0,0E0],"parents":[2147483647,0,0,1,1,2,2,3,3,4,4,5,5,6,6,7,7,8,8,9,9,10,10,11,11,12,12,13,13,14,14,16,16,17,17,18,18,19,19,20,20,21,21,23,23,24,24,25,25,26,26,27,27,28,28,29,29,30,30,33,33,34,34,35,35,36,36,37,37,38,38,39,39,40,40,41,41,43,43,44,44,45,45,46,46,47,47,48,48,49,49,51,51,52,52,53,53,54,54,55,55,56,56,57,57],"right_children":[2,4,6,8,10,12,14,16,18,20,22,24,26,28,30,-1,32,34,36,38,40,42,-1,44,46,48,50,52,54,56,58,-1,-1,60,62,64,66,68,70,72,74,76,-1,78,80,82,84,86,88,90,-1,92,94,96,98,100,102,104,-1,-1,-1,-1,-1,-1,-1,-1,-1,-1,-1,-1,-1,-1,-1,-1,-1,-1,-1,-1,-1,-1,-1,-1,-1,-1,-1,-1,-1,-1,-1,-1,-1,-1,-1,-1,-1,-1,-1,-1,-1,-1,-1,-1,-1,-1,-1],"split_conditions":[1E0,2E0,9.0807495E1,1E0,4E0,9.069763E1,9.086243E1,9.093933E1,9.062073E1,9.06427E1,1.4E1,-5.3201294E0,5E-1,-5.375061E0,-5.2816772E0,5.150565E-3,-8.660254E-1,9.0598755E1,-5.309143E0,9.060974E1,-5.30365E0,5E-1,5.514824E-3,9.065369E1,9.0686646E1,-7.0710677E-1,6.45E2,1.6E1,7.0710677E-1,1.2246469E-16,-5.276184E0,1.2851477E-3,4.4050273E-3,-5.3860474E0,-5.347595E0,9.073059E1,-5.2651978E0,-5.3311157E0,-5.342102E0,9.073059E1,1E0,1.6696245E1,1.0976519E-2,4.9E1,-8.660254E-1,-5.314636E0,-5.314636E0,1.065E3,-5.4519653E0,-5.2926636E0,1.515647E-2,4.9E1,4E0,9.45E2,9.085144E1,9.093933E1,5E0,7E0,7.1568713E-3,-2.146169E-3,-2.8698237E-3,-1.7016785E-3,-2.5271138E-3,-3.4089177E-4,-1.1160393E-3,-1.2590186E-3,-1.7742725E-3,-2.2592244E-3,-3.0006012E-3,-1.2726454E-3,-2.285548E-3,-1.01748425E-4,-1.1090444E-3,-1.4397638E-3,1.23660695E-2,2.0449946E-2,5.3932844E-3,8.566571E-3,1.2470327E-2,1.6852824E-2,1.3240436E-2,7.89944E-3,1.7355135E-2,2.4410283E-2,3.9065364E-3,7.881817E-3,3.023492E-3,3.6386761E-3,1.1468253E-2,8.888108E-3,1.2212525E-2,9.824163E-3,1.3789127E-2,8.231133E-3,2.1422675E-2,2.2394177E-2,1.5405311E-2,1.6862182E-2,6.0416707E-3,7.818966E-3,1.2718633E-2,8.449065E-3,5.79776E-3,1.02711795E-2,2.6231607E-2],"split_indices":[18,1,4,23,1,4,4,4,4,4,5,3,8,3,3,0,8,4,3,4,3,8,0,4,4,8,7,5,9,8,3,0,0,3,3,4,3,3,3,4,23,2,0,0,9,3,3,7,3,3,0,0,1,7,4,4,5,5,0,0,0,0,0,0,0,0,0,0,0,0,0,0,0,0,0,0,0,0,0,0,0,0,0,0,0,0,0,0,0,0,0,0,0,0,0,0,0,0,0,0,0,0,0,0,0],"split_type":[0,0,0,0,0,0,0,0,0,0,0,0,0,0,0,0,0,0,0,0,0,0,0,0,0,0,0,0,0,0,0,0,0,0,0,0,0,0,0,0,0,0,0,0,0,0,0,0,0,0,0,0,0,0,0,0,0,0,0,0,0,0,0,0,0,0,0,0,0,0,0,0,0,0,0,0,0,0,0,0,0,0,0,0,0,0,0,0,0,0,0,0,0,0,0,0,0,0,0,0,0,0,0,0,0],"sum_hessian":[5.2379E4,4.9967E4,2.412E3,1.8449E4,3.1518E4,1.226E3,1.186E3,2.658E3,1.5791E4,3.1501E4,1.7E1,7.13E2,5.13E2,9.68E2,2.18E2,2.598E3,6E1,1.013E3,1.4778E4,3.572E3,2.7929E4,1.5E1,2E0,5.44E2,1.69E2,2.7E2,2.43E2,1.26E2,8.42E2,1.55E2,6.3E1,1E0,5.9E1,2.71E2,7.42E2,1.0024E4,4.754E3,1.224E3,2.348E3,1.9469E4,8.46E3,8E0,7E0,6.3E1,4.81E2,1.08E2,6.1E1,1.1E1,2.59E2,2.36E2,7E0,1.18E2,8E0,5.83E2,2.59E2,5E1,1.05E2,4.8E1,1.5E1,9E1,1.81E2,4.99E2,2.43E2,4.299E3,5.725E3,3.241E3,1.513E3,1.088E3,1.36E2,1.436E3,9.12E2,7.288E3,1.2181E4,8.457E3,3E0,7E0,1E0,5.1E1,1.2E1,8.5E1,3.96E2,3.2E1,7.6E1,5.3E1,8E0,9E0,2E0,2E0,2.57E2,2.13E2,2.3E1,1.03E2,1.5E1,3E0,5E0,4.99E2,8.4E1,2.47E2,1.2E1,3.7E1,1.3E1,3.3E1,7.2E1,2.3E1,2.5E1],"tree_param":{"num_deleted":"0","num_feature":"38","num_nodes":"105","size_leaf_vector":"1"}},{"base_weights":[-1.159118E-6,-1.3609871E-2,2.8447708E-1,4.825558E-3,-1.9797254E-2,2.2670996E-1,3.0809623E-1,-1.9905185E-2,3.0163625E-1,2.0450893E-1,2.5632048E-1,3.624615E-1,2.8121504E-1,-1.7753553E-2,-3.0396089E-2,1.0777322E-2,4.0919492E-1,2.7596712E-1,1.9152626E-1,3.0632392E-1,2.3226833E-1,3.7978077E-1,1.9684893E-1,3.1235996E-1,2.4088614E-1,-2.4842339E-2,-1.4121804E-2,-2.5780248E-2,-3.364522E-2,2.5049949E-2,7.519558E-3,5.5398433E-3,3.2856172E-1,1.10585E-2,1.8466164E-1,2.565274E-1,3.5826108E-1,1.701007E-1,2.4639396E-1,2.3803839E-1,4.0054834E-1,1.7815991E-1,1.4977542E-2,5.051731E-1,3.017331E-1,1.4930561E-1,2.497971E-1,-1.1035347E-3,-1.8359956E-3,-5.151387E-4,-1.1092828E-3,-1.1708438E-3,-1.7299775E-3,-1.533087E-3,-2.0203737E-3,6.636242E-3,1.748616E-2,3.227478E-3,9.285158E-3,1.5301997E-2,7.437609E-3,7.6618465E-3,1.9060269E-2,9.6446825E-3,4.5201173E-3,8.929831E-3,1.2981745E-2,9.0539E-3,1.5321605E-2,2.1044748E-2,1.298177E-2,5.6930315E-3,9.688827E-3,2.9359325E-3,2.9283753E-2,1.40893925E-2,1.7998878E-2,3.4441866E-3,1.0316307E-2,1.575412E-2,1.17746E-2],"categories":[],"categories_nodes":[],"categories_segments":[],"categories_sizes":[],"default_left":[0,0,0,0,0,0,0,0,0,0,0,0,0,0,0,0,0,0,0,0,0,0,0,0,0,0,0,0,0,0,0,0,0,0,0,0,0,0,0,0,0,0,0,0,0,0,0,0,0,0,0,0,0,0,0,0,0,0,0,0,0,0,0,0,0,0,0,0,0,0,0,0,0,0,0,0,0,0,0,0,0],"id":12,"left_children":[1,3,5,-1,7,9,11,13,15,17,19,21,23,25,27,-1,29,31,33,35,37,39,41,43,45,47,49,51,53,-1,-1,-1,55,-1,57,59,61,63,65,67,69,71,-1,73,75,77,79,-1,-1,-1,-1,-1,-1,-1,-1,-1,-1,-1,-1,-1,-1,-1,-1,-1,-1,-1,-1,-1,-1,-1,-1,-1,-1,-1,-1,-1,-1,-1,-1,-1,-1],"loss_changes":[2.0343343E2,3.4171482E1,3.2033844E0,0E0,1.6532745E0,4.0774918E-1,2.3824615E0,1.0709114E0,5.995488E-2,3.2287025E-1,2.8484726E-1,1.5286102E0,1.3591461E0,1.0137587E0,1.20266914E-1,0E0,6.72096E-2,4.848199E-1,2.9566765E-2,1.4862156E-1,1.3723087E-1,1.3911972E0,5.2198887E-2,1.160984E0,3.7237167E-1,4.3844604E-1,8.019786E-1,6.882715E-2,9.433031E-2,0E0,0E0,0E0,1.4007187E-1,0E0,2.3916245E-2,2.266233E-1,1.438632E-1,5.704093E-2,1.0085297E-1,2.0552611E-1,1.1493759E0,2.7139306E-2,0E0,1.1157045E0,6.071968E-1,2.0131528E-1,3.516655E-1,0E0,0E0,0E0,0E0,0E0,0E0,0E0,0E0,0E0,0E0,0E0,0E0,0E0,0E0,0E0,0E0,0E0,0E0,0E0,0E0,0E0,0E0,0E0,0E0,0E0,0E0,0E0,0E0,0E0,0E0,0E0,0E0,0E0,0E0],"parents":[2147483647,0,0,1,1,2,2,4,4,5,5,6,6,7,7,8,8,9,9,10,10,11,11,12,12,13,13,14,14,16,16,17,17,18,18,19,19,20,20,21,21,22,22,23,23,24,24,25,25,26,26,27,27,28,28,32,32,34,34,35,35,36,36,37,37,38,38,39,39,40,40,41,41,43,43,44,44,45,45,46,46],"right_children":[2,4,6,-1,8,10,12,14,16,18,20,22,24,26,28,-1,30,32,34,36,38,40,42,44,46,48,50,52,54,-1,-1,-1,56,-1,58,60,62,64,66,68,70,72,-1,74,76,78,80,-1,-1,-1,-1,-1,-1,-1,-1,-1,-1,-1,-1,-1,-1,-1,-1,-1,-1,-1,-1,-1,-1,-1,-1,-1,-1,-1,-1,-1,-1,-1,-1,-1,-1],"split_conditions":[1E0,1E0,-5.3640747E0,4.825558E-3,4E0,-5.3860474E0,-5.347595E0,-5.2816772E0,5.6655387E-16,-5.4519653E0,-7.0710677E-1,1E0,1E0,-5.3860474E0,-5.2651978E0,1.0777322E-2,1.6696245E1,-5.4574585E0,9.672299E0,7.35E2,1.1058731E1,1.05E2,4.9E1,-5.342102E0,-5.342102E0,8.85E2,8.25E2,9.15E2,1E0,2.5049949E-2,7.519558E-3,5.5398433E-3,2.1E2,1.10585E-2,9.909658E0,-5.369568E0,6.6640058E0,1E0,1.05E2,-5.3530884E0,9.3E2,5.25E2,1.4977542E-2,1E0,-5.2871704E0,1E0,-5.336609E0,-1.1035347E-3,-1.8359956E-3,-5.151387E-4,-1.1092828E-3,-1.1708438E-3,-1.7299775E-3,-1.533087E-3,-2.0203737E-3,6.636242E-3,1.748616E-2,3.227478E-3,9.285158E-3,1.5301997E-2,7.437609E-3,7.6618465E-3,1.9060269E-2,9.6446825E-3,4.5201173E-3,8.929831E-3,1.2981745E-2,9.0539E-3,1.5321605E-2,2.1044748E-2,1.298177E-2,5.6930315E-3,9.688827E-3,2.9359325E-3,2.9283753E-2,1.40893925E-2,1.7998878E-2,3.4441866E-3,1.0316307E-2,1.575412E-2,1.17746E-2],"split_indices":[18,19,3,0,1,3,3,3,10,3,9,33,16,3,3,0,2,3,2,7,2,7,0,3,3,7,7,7,34,0,0,0,7,0,2,3,2,10,7,3,7,7,0,33,3,33,3,0,0,0,0,0,0,0,0,0,0,0,0,0,0,0,0,0,0,0,0,0,0,0,0,0,0,0,0,0,0,0,0,0,0],"split_type":[0,0,0,0,0,0,0,0,0,0,0,0,0,0,0,0,0,0,0,0,0,0,0,0,0,0,0,0,0,0,0,0,0,0,0,0,0,0,0,0,0,0,0,0,0,0,0,0,0,0,0,0,0,0,0,0,0,0,0,0,0,0,0,0,0,0,0,0,0,0,0,0,0,0,0,0,0,0,0,0,0],"sum_hessian":[5.2546E4,5.0148E4,2.398E3,2.667E3,4.7481E4,6.99E2,1.699E3,4.7466E4,1.5E1,4.04E2,2.95E2,5.58E2,1.141E3,3.939E4,8.076E3,1E1,5E0,5.9E1,3.45E2,9.2E1,2.03E2,5.04E2,5.4E1,6.4E2,5.01E2,1.3342E4,2.6048E4,3.34E3,4.736E3,3E0,2E0,1.5E1,4.4E1,5.9E1,2.86E2,5E1,4.2E1,4E1,1.63E2,6.6E1,4.38E2,4.8E1,6E0,3.1E1,6.09E2,4.6E1,4.55E2,1.082E4,2.522E3,1.7678E4,8.37E3,2.637E3,7.03E2,3.29E3,1.446E3,5E0,3.9E1,3E0,2.83E2,3.3E1,1.7E1,5E0,3.7E1,3E1,1E1,2.9E1,1.34E2,3.8E1,2.8E1,3.81E2,5.7E1,1.1E1,3.7E1,5E0,2.6E1,4.58E2,1.51E2,2E1,2.6E1,7.8E1,3.77E2],"tree_param":{"num_deleted":"0","num_feature":"38","num_nodes":"81","size_leaf_vector":"1"}},{"base_weights":[-1.762329E-5,-1.2752135E-2,2.6931247E-1,9.187074E-2,-1.8590493E-2,2.2447103E-1,3.155815E-1,9.733133E-2,9.10367E-2,-1.8706365E-2,3.2570636E-1,2.5601918E-1,1.8227828E-1,3.475677E-1,1.7547816E-1,9.886734E-2,3.6064803E-3,4.6150633E-3,8.753316E-2,-3.452935E-2,-1.6679592E-2,1.0576014E-2,4.1345242E-1,2.3731388E-1,3.1329715E-1,1.7440803E-1,2.0995574E-1,2.538419E-1,3.7753522E-1,1.309056E-1,2.9067078E-1,1.0711093E-3,4.9523166E-3,7.990891E-2,8.940514E-2,-4.36935E-2,-2.9681101E-2,-8.814431E-3,-2.1385364E-2,2.392904E-2,7.2689056E-3,1.6485928E-1,2.461907E-1,3.5905904E-1,2.0306824E-1,1.7858066E-1,1.3134685E-1,2.6351622E-1,1.8460378E-1,2.0849808E-1,2.937152E-1,4.1177586E-1,3.1796613E-1,1.2000847E-1,1.7760263E-1,3.431701E-1,6.242474E-3,4.0736697E-3,2.2542053E-3,2.6538013E-3,4.4869813E-3,-2.09907E-3,-2.8001445E-3,-1.1111087E-3,-2.0844273E-3,-5.0901795E-5,-1.5208933E-3,-1.006457E-3,-2.212311E-3,1.080796E-2,7.3035406E-3,5.055764E-3,1.2458502E-2,1.9474022E-2,7.229132E-3,7.437849E-3,1.3678605E-2,8.659712E-3,1.2169651E-2,2.124797E-3,7.611579E-3,4.2770556E-3,1.6858876E-2,4.835255E-3,1.1334672E-2,9.390727E-3,1.4018427E-2,1.8970149E-2,1.1293274E-2,2.1427032E-2,1.5099503E-2,1.0901622E-2,1.7338974E-2,7.621698E-3,5.186204E-3,6.129381E-3,1.400623E-2,8.67425E-3,2.359894E-2],"categories":[],"categories_nodes":[],"categories_segments":[],"categories_sizes":[],"default_left":[0,0,0,0,0,0,0,0,0,0,0,0,0,0,0,0,0,0,0,0,0,0,0,0,0,0,0,0,0,0,0,0,0,0,0,0,0,0,0,0,0,0,0,0,0,0,0,0,0,0,0,0,0,0,0,0,0,0,0,0,0,0,0,0,0,0,0,0,0,0,0,0,0,0,0,0,0,0,0,0,0,0,0,0,0,0,0,0,0,0,0,0,0,0,0,0,0,0,0],"id":13,"left_children":[1,3,5,7,9,11,13,15,17,19,21,23,25,27,29,31,-1,-1,33,35,37,-1,39,41,43,45,47,49,51,53,55,-1,-1,57,59,61,63,65,67,-1,-1,69,71,73,75,77,79,81,83,85,87,89,91,93,95,97,-1,-1,-1,-1,-1,-1,-1,-1,-1,-1,-1,-1,-1,-1,-1,-1,-1,-1,-1,-1,-1,-1,-1,-1,-1,-1,-1,-1,-1,-1,-1,-1,-1,-1,-1,-1,-1,-1,-1,-1,-1,-1,-1],"loss_changes":[1.7974146E2,3.0567425E1,4.8380585E0,3.1852722E-3,1.8969345E0,1.5573196E0,5.14637E0,5.8751106E-3,2.155304E-3,1.5189133E0,7.2856426E-2,6.617012E-1,7.643509E-2,2.5584183E0,1.0812545E0,2.231121E-3,0E0,0E0,1.8758774E-3,2.3769283E-1,1.5544119E0,0E0,7.009888E-2,2.9514503E-1,7.644386E-1,5.0210953E-2,1.007185E-1,3.5821915E-1,1.3254089E0,5.9595585E-2,4.79486E-1,0E0,0E0,3.6275983E-3,1.3005733E-3,3.6827087E-2,3.1442428E-1,2.6485138E0,7.537985E-1,0E0,0E0,2.6256442E-2,1.7492485E-1,7.005491E-1,1.5459108E-1,8.736515E-2,6.775582E-2,4.0378356E-1,2.6664877E-1,1.1383438E-1,6.177864E-1,6.98822E-1,6.8743896E-1,5.3888798E-2,1.2358707E-1,9.016795E-1,0E0,0E0,0E0,0E0,0E0,0E0,0E0,0E0,0E0,0E0,0E0,0E0,0E0,0E0,0E0,0E0,0E0,0E0,0E0,0E0,0E0,0E0,0E0,0E0,0E0,0E0,0E0,0E0,0E0,0E0,0E0,0E0,0E0,0E0,0E0,0E0,0E0,0E0,0E0,0E0,0E0,0E0,0E0],"parents":[2147483647,0,0,1,1,2,2,3,3,4,4,5,5,6,6,7,7,8,8,9,9,10,10,11,11,12,12,13,13,14,14,15,15,18,18,19,19,20,20,22,22,23,23,24,24,25,25,26,26,27,27,28,28,29,29,30,30,33,33,34,34,35,35,36,36,37,37,38,38,41,41,42,42,43,43,44,44,45,45,46,46,47,47,48,48,49,49,50,50,51,51,52,52,53,53,54,54,55,55],"right_children":[2,4,6,8,10,12,14,16,18,20,22,24,26,28,30,32,-1,-1,34,36,38,-1,40,42,44,46,48,50,52,54,56,-1,-1,58,60,62,64,66,68,-1,-1,70,72,74,76,78,80,82,84,86,88,90,92,94,96,98,-1,-1,-1,-1,-1,-1,-1,-1,-1,-1,-1,-1,-1,-1,-1,-1,-1,-1,-1,-1,-1,-1,-1,-1,-1,-1,-1,-1,-1,-1,-1,-1,-1,-1,-1,-1,-1,-1,-1,-1,-1,-1,-1],"split_conditions":[1E0,1E0,9.0807495E1,-5.413513E0,4E0,9.069763E1,9.086243E1,8.4E2,1E0,9.06427E1,5.6655387E-16,-5.3201294E0,-5.309143E0,-5.3640747E0,-5.2816772E0,9.066467E1,3.6064803E-3,4.6150633E-3,-5.369568E0,9.060974E1,9.073059E1,1.0576014E-2,1.6696245E1,9.065369E1,5E-1,-5.3201294E0,-5.2981567E0,-5.375061E0,5E-1,8.25E2,-5.276184E0,1.0711093E-3,4.9523166E-3,1.8678526E1,1.4132282E1,-5.3311157E0,-5.342102E0,-5.2981567E0,9.095032E1,2.392904E-2,7.2689056E-3,1.2E2,-5.4574585E0,8.55E2,9.0686646E1,4.9E1,2.5881904E-1,4.65E2,1E0,9.0840454E1,-5.369568E0,9.45E2,9.081848E1,2.85E2,9.093933E1,4.05E2,6.242474E-3,4.0736697E-3,2.2542053E-3,2.6538013E-3,4.4869813E-3,-2.09907E-3,-2.8001445E-3,-1.1111087E-3,-2.0844273E-3,-5.0901795E-5,-1.5208933E-3,-1.006457E-3,-2.212311E-3,1.080796E-2,7.3035406E-3,5.055764E-3,1.2458502E-2,1.9474022E-2,7.229132E-3,7.437849E-3,1.3678605E-2,8.659712E-3,1.2169651E-2,2.124797E-3,7.611579E-3,4.2770556E-3,1.6858876E-2,4.835255E-3,1.1334672E-2,9.390727E-3,1.4018427E-2,1.8970149E-2,1.1293274E-2,2.1427032E-2,1.5099503E-2,1.0901622E-2,1.7338974E-2,7.621698E-3,5.186204E-3,6.129381E-3,1.400623E-2,8.67425E-3,2.359894E-2],"split_indices":[18,19,4,3,1,4,4,7,25,4,10,3,3,3,3,4,0,0,3,4,4,0,2,4,9,3,3,3,9,7,3,0,0,2,2,3,3,3,4,0,0,7,3,7,4,0,9,7,33,4,3,7,4,7,4,7,0,0,0,0,0,0,0,0,0,0,0,0,0,0,0,0,0,0,0,0,0,0,0,0,0,0,0,0,0,0,0,0,0,0,0,0,0,0,0,0,0,0,0],"split_type":[0,0,0,0,0,0,0,0,0,0,0,0,0,0,0,0,0,0,0,0,0,0,0,0,0,0,0,0,0,0,0,0,0,0,0,0,0,0,0,0,0,0,0,0,0,0,0,0,0,0,0,0,0,0,0,0,0,0,0,0,0,0,0,0,0,0,0,0,0,0,0,0,0,0,0,0,0,0,0,0,0,0,0,0,0,0,0,0,0,0,0,0,0,0,0,0,0,0,0],"sum_hessian":[5.2404E4,5.0039E4,2.365E3,2.644E3,4.7395E4,1.204E3,1.161E3,3.35E2,2.309E3,4.738E4,1.5E1,6.86E2,5.18E2,9.44E2,2.17E2,3.13E2,2.2E1,1.678E3,6.31E2,5.378E3,4.2002E4,8E0,7E0,5.21E2,1.65E2,4.09E2,1.09E2,2.31E2,7.13E2,1.58E2,5.9E1,1E0,3.12E2,1.33E2,4.98E2,1.858E3,3.52E3,1.5724E4,2.6278E4,5E0,2E0,5.9E1,4.62E2,1.15E2,5E1,3.7E2,3.9E1,3.2E1,7.7E1,1.11E2,1.2E2,4.49E2,2.64E2,1.31E2,2.7E1,4.4E1,1.5E1,1.26E2,7E0,6E0,4.92E2,1.635E3,2.23E2,2.173E3,1.347E3,1.1555E4,4.169E3,2.4911E4,1.367E3,1.3E1,4.6E1,1E1,4.52E2,1E2,1.5E1,3E1,2E1,3.45E2,2.5E1,8E0,3.1E1,1E1,2.2E1,2.6E1,5.1E1,8.9E1,2.2E1,5.1E1,6.9E1,3.87E2,6.2E1,6.1E1,2.03E2,4.1E1,9E1,1.9E1,8E0,2E1,2.4E1],"tree_param":{"num_deleted":"0","num_feature":"38","num_nodes":"99","size_leaf_vector":"1"}},{"base_weights":[2.0875686E-4,-1.2257939E-2,2.5590834E-1,8.761077E-2,-1.7864294E-2,2.1220224E-1,3.005966E-1,6.7980826E-2,8.778565E-2,-1.7969603E-2,2.960645E-1,2.4118708E-1,1.7387968E-1,3.2955474E-1,1.697765E-1,9.261679E-4,6.912653E-2,4.798344E-3,8.727561E-2,-3.3386398E-2,-1.5974026E-2,7.135658E-3,3.3528885E-1,2.8495458E-1,2.2136097E-1,1.8747915E-1,1.5758276E-1,2.712621E-1,3.5303366E-1,1.08456984E-1,2.1107648E-1,3.8179897E-3,2.459701E-3,8.753311E-2,3.630975E-3,-4.2372197E-2,-2.885701E-2,-8.381003E-3,-2.0520868E-2,3.949789E-1,8.63635E-3,1.5682979E-1,2.979484E-1,2.0142244E-1,2.701168E-1,1.7919612E-1,2.1859463E-1,1.2946434E-1,1.65177E-1,2.7809218E-1,1.0538789E-1,3.9197043E-1,2.977982E-1,1.219429E-1,8.226169E-2,2.5234616E-1,1.5643644E-1,4.20702E-3,4.42988E-3,-2.335117E-3,-1.9496534E-3,-2.517836E-3,-1.3183698E-3,-1.6533248E-3,-2.2241399E-4,-9.6611364E-4,-2.1051215E-3,2.2931999E-2,6.7998604E-3,2.377676E-3,8.268987E-3,1.2598537E-2,1.6290769E-2,3.7531217E-3,1.0283696E-2,1.1900522E-2,1.918462E-2,1.0294634E-2,8.208209E-3,8.97044E-3,1.4007933E-2,3.3939753E-3,6.82931E-3,8.074263E-3,1.2696879E-2,1.10023515E-2,1.5117044E-2,3.8792987E-3,8.609948E-3,1.7101789E-2,2.2035606E-2,1.3753699E-2,2.1202356E-2,2.1894104E-3,6.1976104E-3,4.166353E-3,1.1776083E-3,1.4078519E-2,8.590021E-3,5.6607625E-3,8.429893E-3],"categories":[],"categories_nodes":[],"categories_segments":[],"categories_sizes":[],"default_left":[0,0,0,0,0,0,0,0,0,0,0,0,0,0,0,0,0,0,0,0,0,0,0,0,0,0,0,0,0,0,0,0,0,0,0,0,0,0,0,0,0,0,0,0,0,0,0,0,0,0,0,0,0,0,0,0,0,0,0,0,0,0,0,0,0,0,0,0,0,0,0,0,0,0,0,0,0,0,0,0,0,0,0,0,0,0,0,0,0,0,0,0,0,0,0,0,0,0,0,0,0],"id":14,"left_children":[1,3,5,7,9,11,13,15,17,19,21,23,25,27,29,-1,31,-1,33,35,37,-1,39,41,43,45,47,49,51,53,55,-1,-1,57,-1,59,61,63,65,67,-1,69,71,73,75,77,79,81,83,85,87,89,91,93,95,97,99,-1,-1,-1,-1,-1,-1,-1,-1,-1,-1,-1,-1,-1,-1,-1,-1,-1,-1,-1,-1,-1,-1,-1,-1,-1,-1,-1,-1,-1,-1,-1,-1,-1,-1,-1,-1,-1,-1,-1,-1,-1,-1,-1,-1],"loss_changes":[1.678594E2,2.8114117E1,4.717499E0,3.1929016E-3,1.5770292E0,1.3365364E0,4.5203323E0,3.0614436E-4,2.6493073E-3,1.4616528E0,4.839158E-2,5.478096E-1,8.969307E-2,1.2564621E0,5.3678846E-1,0E0,1.3633072E-4,0E0,3.0708313E-3,2.2043037E-1,1.4526787E0,0E0,4.8216343E-2,3.1287575E-1,4.2095947E-1,3.5056114E-2,3.2213688E-2,2.96978E-1,1.3909073E0,2.2116184E-2,2.5592613E-1,0E0,0E0,1.3923645E-3,0E0,2.4852991E-2,1.9265032E-1,1.5301442E0,6.8002224E-1,6.952262E-2,0E0,1.2690306E-2,1.677494E-1,1.7312622E-1,4.155407E-1,5.9702396E-2,8.483362E-2,1.6167343E-2,2.256298E-2,3.219452E-1,1.0786951E-2,8.422928E-1,7.2681427E-1,3.680408E-3,1.6407669E-4,1.2345934E-1,1.1924505E-2,0E0,0E0,0E0,0E0,0E0,0E0,0E0,0E0,0E0,0E0,0E0,0E0,0E0,0E0,0E0,0E0,0E0,0E0,0E0,0E0,0E0,0E0,0E0,0E0,0E0,0E0,0E0,0E0,0E0,0E0,0E0,0E0,0E0,0E0,0E0,0E0,0E0,0E0,0E0,0E0,0E0,0E0,0E0,0E0],"parents":[2147483647,0,0,1,1,2,2,3,3,4,4,5,5,6,6,7,7,8,8,9,9,10,10,11,11,12,12,13,13,14,14,16,16,18,18,19,19,20,20,22,22,23,23,24,24,25,25,26,26,27,27,28,28,29,29,30,30,33,33,35,35,36,36,37,37,38,38,39,39,41,41,42,42,43,43,44,44,45,45,46,46,47,47,48,48,49,49,50,50,51,51,52,52,53,53,54,54,55,55,56,56],"right_children":[2,4,6,8,10,12,14,16,18,20,22,24,26,28,30,-1,32,-1,34,36,38,-1,40,42,44,46,48,50,52,54,56,-1,-1,58,-1,60,62,64,66,68,-1,70,72,74,76,78,80,82,84,86,88,90,92,94,96,98,100,-1,-1,-1,-1,-1,-1,-1,-1,-1,-1,-1,-1,-1,-1,-1,-1,-1,-1,-1,-1,-1,-1,-1,-1,-1,-1,-1,-1,-1,-1,-1,-1,-1,-1,-1,-1,-1,-1,-1,-1,-1,-1,-1,-1],"split_conditions":[1E0,1E0,9.0807495E1,9.0631714E1,4E0,9.069763E1,9.086243E1,-9.659258E-1,-9.659258E-1,9.06427E1,1.5E1,-7.0710677E-1,5E-1,2.7E2,9.091736E1,9.261679E-4,8.55E2,4.798344E-3,9.093933E1,9.060974E1,9.073059E1,7.135658E-3,1.6696245E1,9.065369E1,9.0686646E1,2.1960241E1,3E0,9.085144E1,9.082947E1,5E-1,-1.8369701E-16,3.8179897E-3,2.459701E-3,-1.8369701E-16,3.630975E-3,9.0598755E1,-7.0710677E-1,-7.0710677E-1,9.095032E1,4.5E1,8.63635E-3,6.45E2,1.5822522E1,-7.0710677E-1,4.9E1,1.1802457E1,1E0,7.0710677E-1,6.45E2,9.081848E1,2.1E2,9.081848E1,9.085144E1,2.4332E0,2.6354856E1,9.0928345E1,1.2246469E-16,4.20702E-3,4.42988E-3,-2.335117E-3,-1.9496534E-3,-2.517836E-3,-1.3183698E-3,-1.6533248E-3,-2.2241399E-4,-9.6611364E-4,-2.1051215E-3,2.2931999E-2,6.7998604E-3,2.377676E-3,8.268987E-3,1.2598537E-2,1.6290769E-2,3.7531217E-3,1.0283696E-2,1.1900522E-2,1.918462E-2,1.0294634E-2,8.208209E-3,8.97044E-3,1.4007933E-2,3.3939753E-3,6.82931E-3,8.074263E-3,1.2696879E-2,1.10023515E-2,1.5117044E-2,3.8792987E-3,8.609948E-3,1.7101789E-2,2.2035606E-2,1.3753699E-2,2.1202356E-2,2.1894104E-3,6.1976104E-3,4.166353E-3,1.1776083E-3,1.4078519E-2,8.590021E-3,5.6607625E-3,8.429893E-3],"split_indices":[18,19,4,4,14,4,4,9,9,4,6,9,8,7,4,0,7,0,4,4,4,0,2,4,4,2,14,4,4,8,9,0,0,11,0,4,8,8,4,6,0,7,2,8,0,2,33,8,7,4,7,4,4,2,2,4,8,0,0,0,0,0,0,0,0,0,0,0,0,0,0,0,0,0,0,0,0,0,0,0,0,0,0,0,0,0,0,0,0,0,0,0,0,0,0,0,0,0,0,0,0],"split_type":[0,0,0,0,0,0,0,0,0,0,0,0,0,0,0,0,0,0,0,0,0,0,0,0,0,0,0,0,0,0,0,0,0,0,0,0,0,0,0,0,0,0,0,0,0,0,0,0,0,0,0,0,0,0,0,0,0,0,0,0,0,0,0,0,0,0,0,0,0,0,0,0,0,0,0,0,0,0,0,0,0,0,0,0,0,0,0,0,0,0,0,0,0,0,0,0,0,0,0,0,0],"sum_hessian":[5.2656E4,5.0209E4,2.447E3,2.668E3,4.7541E4,1.24E3,1.207E3,2.7E1,2.641E3,4.7526E4,1.5E1,7.03E2,5.37E2,9.87E2,2.2E2,1E0,2.6E1,1.44E2,2.497E3,5.445E3,4.2081E4,4E0,1.1E1,2.15E2,4.88E2,2.87E2,2.5E2,2.87E2,7E2,9E1,1.3E2,1.7E1,9E0,2.449E3,4.8E1,1.822E3,3.623E3,1.5762E4,2.6319E4,7E0,4E0,2.1E1,1.94E2,3.5E2,1.38E2,2.32E2,5.5E1,5.7E1,1.93E2,2.75E2,1.2E1,4.07E2,2.93E2,5.7E1,3.3E1,7.2E1,5.8E1,6.04E2,1.845E3,7.93E2,1.029E3,3.74E2,3.249E3,2.165E3,1.3597E4,2.4936E4,1.383E3,5E0,2E0,2E0,1.9E1,7.7E1,1.17E2,1.2E1,3.38E2,1.1E2,2.8E1,7.9E1,1.53E2,3.6E1,1.9E1,7E0,5E1,1.88E2,5E0,8.4E1,1.91E2,1E1,2E0,2.05E2,2.02E2,2.51E2,4.2E1,2E0,5.5E1,3.2E1,1E0,5.1E1,2.1E1,1.5E1,4.3E1],"tree_param":{"num_deleted":"0","num_feature":"38","num_nodes":"101","size_leaf_vector":"1"}},{"base_weights":[2.4249114E-4,-1.162539E-2,2.4515362E-1,8.328202E-2,-1.6903553E-2,2.0648059E-1,2.8432968E-1,8.223636E-2,8.881956E-2,-1.7003179E-2,2.7973655E-1,2.3498328E-1,1.6627374E-1,3.1097105E-1,1.6103041E-1,8.4506825E-2,7.8394264E-2,9.6516766E-2,8.26572E-2,-3.1020796E-2,-1.51983285E-2,8.68887E-3,3.6397353E-1,2.1419917E-1,2.937994E-1,1.6117921E-1,2.0567414E-1,1.8053229E-1,3.30153E-1,1.11676306E-1,2.904697E-1,8.4739365E-2,2.778269E-3,7.9712145E-2,5.8426328E-2,1.383587E-3,9.715271E-2,6.925869E-2,8.690375E-2,-3.978038E-2,-2.647018E-2,-1.1259113E-2,-2.4131237E-2,3.9545435E-1,3.5901964E-3,2.2376594E-1,1.5734987E-1,3.1163466E-1,3.5225026E-2,1.6535139E-1,8.549724E-2,8.958106E-2,2.207381E-1,1.6976485E-1,2.8060445E-1,2.3150665E-1,3.5285762E-1,1.0148163E-1,1.6185273E-1,3.4818017E-1,5.6805788E-3,4.081498E-3,4.387629E-3,2.778441E-3,4.019847E-3,1.963006E-3,3.1940148E-3,1.2528402E-3,4.8713097E-3,4.050764E-3,2.8769886E-3,4.357805E-3,1.087501E-3,-1.9045792E-3,-2.5869885E-3,-9.6055487E-4,-1.9011615E-3,-1.363577E-5,-8.989588E-4,-1.4705303E-3,-9.3554764E-4,6.7387307E-3,2.3638565E-2,1.3672932E-2,1.0463882E-2,6.323521E-3,1.0229996E-2,1.2722425E-2,2.0576173E-2,2.633221E-3,6.3767435E-4,8.95944E-3,7.122898E-3,4.6299566E-3,2.6496116E-3,5.138241E-3,1.667659E-3,1.1995135E-2,7.162623E-3,7.92456E-3,1.2149813E-2,6.421137E-3,1.6080989E-2,1.2721038E-2,6.249533E-3,1.6791083E-2,2.2293601E-2,6.656864E-3,4.5330804E-3,5.313997E-3,1.1729197E-2,8.034141E-3,2.3590297E-2],"categories":[],"categories_nodes":[],"categories_segments":[],"categories_sizes":[],"default_left":[0,0,0,0,0,0,0,0,0,0,0,0,0,0,0,0,0,0,0,0,0,0,0,0,0,0,0,0,0,0,0,0,0,0,0,0,0,0,0,0,0,0,0,0,0,0,0,0,0,0,0,0,0,0,0,0,0,0,0,0,0,0,0,0,0,0,0,0,0,0,0,0,0,0,0,0,0,0,0,0,0,0,0,0,0,0,0,0,0,0,0,0,0,0,0,0,0,0,0,0,0,0,0,0,0,0,0,0,0,0,0,0,0],"id":15,"left_children":[1,3,5,7,9,11,13,15,17,19,21,23,25,27,29,31,33,35,37,39,41,-1,43,45,47,49,51,53,55,57,59,61,-1,63,65,-1,67,69,71,73,75,77,79,81,-1,83,85,87,89,91,93,95,97,99,101,103,105,107,109,111,-1,-1,-1,-1,-1,-1,-1,-1,-1,-1,-1,-1,-1,-1,-1,-1,-1,-1,-1,-1,-1,-1,-1,-1,-1,-1,-1,-1,-1,-1,-1,-1,-1,-1,-1,-1,-1,-1,-1,-1,-1,-1,-1,-1,-1,-1,-1,-1,-1,-1,-1,-1,-1],"loss_changes":[1.5275504E2,2.5111366E1,3.6213684E0,7.987976E-3,1.4081106E0,1.3659286E0,3.9048996E0,1.2871742E-2,1.1327505E-2,1.200531E0,7.956064E-2,8.1111145E-1,6.962204E-2,2.4149323E0,1.3474469E0,4.6596527E-3,1.755333E-2,4.9732924E-3,7.2381496E-3,2.1475697E-1,1.4796925E0,0E0,4.518664E-2,2.541256E-1,8.375845E-1,1.3047981E-1,7.641125E-2,9.136343E-2,1.8467178E0,6.439698E-2,5.626302E-1,5.757332E-3,0E0,8.577347E-3,3.3458471E-3,0E0,9.6976757E-4,3.742665E-3,9.4878674E-4,3.537345E-2,2.9833055E-1,2.154998E0,3.6773348E-1,7.736719E-2,0E0,2.6891327E-1,9.0848684E-2,8.777962E-1,4.4229142E-3,1.1164093E-1,1.094982E-3,2.5028288E-3,3.6912203E-2,5.9731483E-2,2.7356327E-2,3.6847782E-1,9.563217E-1,3.382659E-2,7.611525E-2,9.44087E-1,0E0,0E0,0E0,0E0,0E0,0E0,0E0,0E0,0E0,0E0,0E0,0E0,0E0,0E0,0E0,0E0,0E0,0E0,0E0,0E0,0E0,0E0,0E0,0E0,0E0,0E0,0E0,0E0,0E0,0E0,0E0,0E0,0E0,0E0,0E0,0E0,0E0,0E0,0E0,0E0,0E0,0E0,0E0,0E0,0E0,0E0,0E0,0E0,0E0,0E0,0E0,0E0,0E0],"parents":[2147483647,0,0,1,1,2,2,3,3,4,4,5,5,6,6,7,7,8,8,9,9,10,10,11,11,12,12,13,13,14,14,15,15,16,16,17,17,18,18,19,19,20,20,22,22,23,23,24,24,25,25,26,26,27,27,28,28,29,29,30,30,31,31,33,33,34,34,36,36,37,37,38,38,39,39,40,40,41,41,42,42,43,43,45,45,46,46,47,47,48,48,49,49,50,50,51,51,52,52,53,53,54,54,55,55,56,56,57,57,58,58,59,59],"right_children":[2,4,6,8,10,12,14,16,18,20,22,24,26,28,30,32,34,36,38,40,42,-1,44,46,48,50,52,54,56,58,60,62,-1,64,66,-1,68,70,72,74,76,78,80,82,-1,84,86,88,90,92,94,96,98,100,102,104,106,108,110,112,-1,-1,-1,-1,-1,-1,-1,-1,-1,-1,-1,-1,-1,-1,-1,-1,-1,-1,-1,-1,-1,-1,-1,-1,-1,-1,-1,-1,-1,-1,-1,-1,-1,-1,-1,-1,-1,-1,-1,-1,-1,-1,-1,-1,-1,-1,-1,-1,-1,-1,-1,-1,-1],"split_conditions":[1E0,1E0,9.0807495E1,-5.2981567E0,4E0,9.069763E1,9.086243E1,-5.342102E0,9.074158E1,9.06427E1,5.6655387E-16,-5.3201294E0,-5.2871704E0,-5.375061E0,-5.2816772E0,9.093933E1,9.0895386E1,-9.659258E-1,9.086243E1,9.060974E1,-5.30365E0,8.68887E-3,1.2E1,8.7E2,-5.309143E0,-5.2981567E0,-7.0710677E-1,1.5E1,1.65E2,8.25E2,-5.276184E0,9.073059E1,2.778269E-3,9.065369E1,9.0928345E1,1.383587E-3,9.065369E1,9.081848E1,1.425E3,-5.3311157E0,-5.342102E0,9.073059E1,9.0807495E1,-5.3860474E0,3.5901964E-3,1.2246469E-16,1.395E3,9.0686646E1,1E0,7.0710677E-1,1.2246469E-16,4.5E1,-5.2816772E0,4.9E1,4E0,-5.336609E0,-5.3311157E0,3E0,9.093933E1,4.05E2,5.6805788E-3,4.081498E-3,4.387629E-3,2.778441E-3,4.019847E-3,1.963006E-3,3.1940148E-3,1.2528402E-3,4.8713097E-3,4.050764E-3,2.8769886E-3,4.357805E-3,1.087501E-3,-1.9045792E-3,-2.5869885E-3,-9.6055487E-4,-1.9011615E-3,-1.363577E-5,-8.989588E-4,-1.4705303E-3,-9.3554764E-4,6.7387307E-3,2.3638565E-2,1.3672932E-2,1.0463882E-2,6.323521E-3,1.0229996E-2,1.2722425E-2,2.0576173E-2,2.633221E-3,6.3767435E-4,8.95944E-3,7.122898E-3,4.6299566E-3,2.6496116E-3,5.138241E-3,1.667659E-3,1.1995135E-2,7.162623E-3,7.92456E-3,1.2149813E-2,6.421137E-3,1.6080989E-2,1.2721038E-2,6.249533E-3,1.6791083E-2,2.2293601E-2,6.656864E-3,4.5330804E-3,5.313997E-3,1.1729197E-2,8.034141E-3,2.3590297E-2],"split_indices":[18,19,4,3,1,4,4,3,4,4,10,3,3,3,3,4,4,8,4,4,3,0,5,7,3,3,8,5,7,7,3,4,0,4,4,0,4,4,7,3,3,4,4,3,0,8,7,4,23,8,8,6,3,0,1,3,3,5,4,7,0,0,0,0,0,0,0,0,0,0,0,0,0,0,0,0,0,0,0,0,0,0,0,0,0,0,0,0,0,0,0,0,0,0,0,0,0,0,0,0,0,0,0,0,0,0,0,0,0,0,0,0,0],"split_type":[0,0,0,0,0,0,0,0,0,0,0,0,0,0,0,0,0,0,0,0,0,0,0,0,0,0,0,0,0,0,0,0,0,0,0,0,0,0,0,0,0,0,0,0,0,0,0,0,0,0,0,0,0,0,0,0,0,0,0,0,0,0,0,0,0,0,0,0,0,0,0,0,0,0,0,0,0,0,0,0,0,0,0,0,0,0,0,0,0,0,0,0,0,0,0,0,0,0,0,0,0,0,0,0,0,0,0,0,0,0,0,0,0],"sum_hessian":[5.2553E4,5.0125E4,2.428E3,2.64E3,4.7485E4,1.225E3,1.203E3,2.234E3,4.06E2,4.747E4,1.5E1,7.14E2,5.11E2,9.88E2,2.15E2,1.391E3,8.43E2,1.74E2,2.32E2,5.413E3,4.2057E4,8E0,7E0,5.31E2,1.83E2,4.57E2,5.4E1,1.28E2,8.6E2,1.57E2,5.8E1,1.378E3,1.3E1,7.88E2,5.5E1,2E0,1.72E2,6E1,1.72E2,1.848E3,3.565E3,2.9188E4,1.2869E4,6E0,1E0,4.52E2,7.9E1,1.71E2,1.2E1,4.32E2,2.5E1,7E0,4.7E1,1.18E2,1E1,1.63E2,6.97E2,1.33E2,2.4E1,4.3E1,1.5E1,6.92E2,6.86E2,2.4E1,7.64E2,1.4E1,4.1E1,1E0,1.71E2,2.7E1,3.3E1,1.71E2,1E0,1.623E3,2.25E2,2.191E3,1.374E3,1.1078E4,1.811E4,6.517E3,6.352E3,2E0,4E0,9.8E1,3.54E2,5E1,2.9E1,1.11E2,6E1,6E0,6E0,2.65E2,1.67E2,1.9E1,6E0,5E0,2E0,3.6E1,1.1E1,1.05E2,1.3E1,3E0,7E0,1.33E2,3E1,5.93E2,1.04E2,3.1E1,1.02E2,1.5E1,9E0,1.8E1,2.5E1],"tree_param":{"num_deleted":"0","num_feature":"38","num_nodes":"113","size_leaf_vector":"1"}},{"base_weights":[3.0713323E-5,-1.1201906E-2,2.3564312E-1,-1.624538E-2,7.881314E-2,1.9770643E-1,2.7630848E-1,-1.6347319E-2,2.8713515E-1,7.824102E-2,8.449032E-2,2.2497146E-1,1.602688E-1,3.029115E-1,1.5495463E-1,-2.7949357E-2,-1.4096842E-2,3.1945255E-1,7.6073217E-3,8.044006E-2,7.57398E-2,9.895192E-2,7.7043764E-2,2.0647526E-1,2.7800444E-1,1.7187744E-1,1.4571899E-1,1.7074592E-1,3.217913E-1,1.1030623E-1,2.6399302E-1,-4.2105727E-2,-2.6034247E-2,-1.0842219E-2,-2.225268E-2,1.8347591E-2,6.6358E-3,7.8298345E-2,8.4608726E-2,6.1836928E-2,7.619639E-2,1.011558E-1,1.7272E-3,7.80237E-2,1.5824381E-3,7.948899E-2,2.0949125E-1,3.5952637E-1,2.2738275E-1,1.7321225E-1,3.0976117E-3,1.4252749E-1,2.2045629E-1,1.5014787E-1,2.3613377E-1,2.6046157E-1,3.4552965E-1,9.331195E-2,1.5793908E-1,3.0689117E-1,5.0560604E-3,-2.3494035E-3,-1.789491E-3,-9.535967E-4,-1.5214075E-3,-9.6600346E-4,-2.4450317E-4,-1.4070746E-3,-8.1296684E-4,3.9616483E-3,2.8034977E-3,3.8014434E-3,4.663905E-3,3.5349277E-3,2.2323192E-3,3.8670588E-3,3.469561E-3,2.9749E-3,5.271669E-3,3.984889E-3,2.5855904E-3,4.451593E-3,2.2252735E-3,1.4886856E-2,1.01261735E-2,1.9160423E-2,2.5471672E-3,8.372715E-3,1.6377857E-2,8.784286E-3,5.416313E-3,6.890043E-3,8.984621E-3,2.6685968E-3,1.1835046E-2,7.0322887E-3,1.4557796E-2,2.3225353E-3,1.2895435E-2,9.087749E-3,1.4482893E-2,1.6192218E-2,2.2438297E-2,5.793522E-3,3.8047314E-3,5.748068E-3,1.264894E-2,7.683446E-3,2.0734886E-2],"categories":[],"categories_nodes":[],"categories_segments":[],"categories_sizes":[],"default_left":[0,0,0,0,0,0,0,0,0,0,0,0,0,0,0,0,0,0,0,0,0,0,0,0,0,0,0,0,0,0,0,0,0,0,0,0,0,0,0,0,0,0,0,0,0,0,0,0,0,0,0,0,0,0,0,0,0,0,0,0,0,0,0,0,0,0,0,0,0,0,0,0,0,0,0,0,0,0,0,0,0,0,0,0,0,0,0,0,0,0,0,0,0,0,0,0,0,0,0,0,0,0,0,0,0,0,0,0,0],"id":16,"left_children":[1,3,5,7,9,11,13,15,17,19,21,23,25,27,29,31,33,35,-1,37,39,41,43,45,47,49,51,53,55,57,59,61,63,65,67,-1,-1,69,71,73,75,77,-1,79,-1,81,83,85,87,89,-1,91,93,95,97,99,101,103,105,107,-1,-1,-1,-1,-1,-1,-1,-1,-1,-1,-1,-1,-1,-1,-1,-1,-1,-1,-1,-1,-1,-1,-1,-1,-1,-1,-1,-1,-1,-1,-1,-1,-1,-1,-1,-1,-1,-1,-1,-1,-1,-1,-1,-1,-1,-1,-1,-1,-1],"loss_changes":[1.390018E2,2.2760632E1,3.6324463E0,1.472866E0,2.029419E-3,1.2296638E0,3.6689224E0,1.23874E0,2.1196127E-2,7.2727203E-3,1.7252684E-2,6.439476E-1,6.3797E-2,2.2980804E0,9.883733E-1,2.0790291E-1,1.0548902E0,5.7737827E-2,0E0,4.7769547E-3,2.6140213E-3,7.151723E-3,4.514754E-3,1.878643E-1,6.6932297E-1,3.1380653E-2,2.5824547E-2,1.2616849E-1,1.109642E0,1.0668528E-1,3.8818026E-1,2.6595235E-2,2.0722914E-1,1.4337177E0,3.996668E-1,0E0,0E0,1.3361454E-2,2.422309E-2,3.241688E-3,3.3035278E-3,6.556928E-3,0E0,2.6180148E-3,0E0,7.1139634E-4,2.6005173E-1,4.7741508E-1,6.3552856E-1,2.6389122E-2,0E0,1.6168118E-2,9.080589E-3,8.499813E-2,9.953904E-2,4.8507214E-1,1.177742E0,3.507173E-2,1.261316E-1,7.1263695E-1,0E0,0E0,0E0,0E0,0E0,0E0,0E0,0E0,0E0,0E0,0E0,0E0,0E0,0E0,0E0,0E0,0E0,0E0,0E0,0E0,0E0,0E0,0E0,0E0,0E0,0E0,0E0,0E0,0E0,0E0,0E0,0E0,0E0,0E0,0E0,0E0,0E0,0E0,0E0,0E0,0E0,0E0,0E0,0E0,0E0,0E0,0E0,0E0,0E0],"parents":[2147483647,0,0,1,1,2,2,3,3,4,4,5,5,6,6,7,7,8,8,9,9,10,10,11,11,12,12,13,13,14,14,15,15,16,16,17,17,19,19,20,20,21,21,22,22,23,23,24,24,25,25,26,26,27,27,28,28,29,29,30,30,31,31,32,32,33,33,34,34,37,37,38,38,39,39,40,40,41,41,43,43,45,45,46,46,47,47,48,48,49,49,51,51,52,52,53,53,54,54,55,55,56,56,57,57,58,58,59,59],"right_children":[2,4,6,8,10,12,14,16,18,20,22,24,26,28,30,32,34,36,-1,38,40,42,44,46,48,50,52,54,56,58,60,62,64,66,68,-1,-1,70,72,74,76,78,-1,80,-1,82,84,86,88,90,-1,92,94,96,98,100,102,104,106,108,-1,-1,-1,-1,-1,-1,-1,-1,-1,-1,-1,-1,-1,-1,-1,-1,-1,-1,-1,-1,-1,-1,-1,-1,-1,-1,-1,-1,-1,-1,-1,-1,-1,-1,-1,-1,-1,-1,-1,-1,-1,-1,-1,-1,-1,-1,-1,-1,-1],"split_conditions":[1E0,1E0,9.0807495E1,4E0,-5.2871704E0,9.069763E1,9.086243E1,-5E-1,4.5E1,-5.347595E0,-5.2816772E0,-5.3201294E0,5E-1,-5.375061E0,-5.2816772E0,9.06427E1,-5.30365E0,1.6696245E1,7.6073217E-3,-5.369568E0,9.065369E1,1.395E3,1E0,-5.4574585E0,-7.0710677E-1,1E0,6.45E2,9.0840454E1,2.7E2,7.8E2,-5.276184E0,-7.0710677E-1,1.02E3,-5.3860474E0,9.0807495E1,1.8347591E-2,6.6358E-3,9.0895386E1,9.078552E1,-5.336609E0,9.087341E1,-5E-1,1.7272E-3,1.095E3,1.5824381E-3,5.1E2,-5.4519653E0,-5.309143E0,9.0686646E1,-5.2816772E0,3.0976117E-3,-5.2926636E0,3E0,1.395E3,-8.660254E-1,9.081848E1,-5.3311157E0,3.75E2,9.093933E1,4.05E2,5.0560604E-3,-2.3494035E-3,-1.789491E-3,-9.535967E-4,-1.5214075E-3,-9.6600346E-4,-2.4450317E-4,-1.4070746E-3,-8.1296684E-4,3.9616483E-3,2.8034977E-3,3.8014434E-3,4.663905E-3,3.5349277E-3,2.2323192E-3,3.8670588E-3,3.469561E-3,2.9749E-3,5.271669E-3,3.984889E-3,2.5855904E-3,4.451593E-3,2.2252735E-3,1.4886856E-2,1.01261735E-2,1.9160423E-2,2.5471672E-3,8.372715E-3,1.6377857E-2,8.784286E-3,5.416313E-3,6.890043E-3,8.984621E-3,2.6685968E-3,1.1835046E-2,7.0322887E-3,1.4557796E-2,2.3225353E-3,1.2895435E-2,9.087749E-3,1.4482893E-2,1.6192218E-2,2.2438297E-2,5.793522E-3,3.8047314E-3,5.748068E-3,1.264894E-2,7.683446E-3,2.0734886E-2],"split_indices":[18,20,4,1,3,4,4,8,6,3,3,3,8,3,3,4,3,2,0,3,4,7,8,3,9,35,7,4,7,7,3,8,7,3,4,0,0,4,4,3,4,8,0,7,0,7,3,3,4,3,0,3,1,7,9,4,3,7,4,7,0,0,0,0,0,0,0,0,0,0,0,0,0,0,0,0,0,0,0,0,0,0,0,0,0,0,0,0,0,0,0,0,0,0,0,0,0,0,0,0,0,0,0,0,0,0,0,0,0],"split_type":[0,0,0,0,0,0,0,0,0,0,0,0,0,0,0,0,0,0,0,0,0,0,0,0,0,0,0,0,0,0,0,0,0,0,0,0,0,0,0,0,0,0,0,0,0,0,0,0,0,0,0,0,0,0,0,0,0,0,0,0,0,0,0,0,0,0,0,0,0,0,0,0,0,0,0,0,0,0,0,0,0,0,0,0,0,0,0,0,0,0,0,0,0,0,0,0,0,0,0,0,0,0,0,0,0,0,0,0,0],"sum_hessian":[5.252E4,5.0131E4,2.389E3,4.7472E4,2.659E3,1.239E3,1.15E3,4.7457E4,1.5E1,2.429E3,2.3E2,7.14E2,5.25E2,9.42E2,2.08E2,7.708E3,3.9749E4,1.1E1,4E0,1.276E3,1.153E3,7.4E1,1.56E2,5.33E2,1.81E2,2.86E2,2.39E2,1.19E2,8.23E2,1.49E2,5.9E1,9.16E2,6.792E3,2.8413E4,1.1336E4,8E0,3E0,8.56E2,4.2E2,4.1E1,1.112E3,7.1E1,3E0,1.52E2,4E0,1.3E1,5.2E2,6.7E1,1.14E2,2.82E2,4E0,2.32E2,7E0,9.3E1,2.6E1,2.33E2,5.9E2,1.12E2,3.7E1,4.6E1,1.3E1,5.13E2,4.03E2,2.63E3,4.162E3,1.1719E4,1.6694E4,5.716E3,5.62E3,8.19E2,3.7E1,2.16E2,2.04E2,2.5E1,1.6E1,9.43E2,1.69E2,8E0,6.3E1,1.41E2,1.1E1,9E0,4E0,3.5E1,4.85E2,6.2E1,5E0,7.3E1,4.1E1,2.7E2,1.2E1,2.1E2,2.2E1,1E0,6E0,8.9E1,4E0,3E0,2.3E1,6.5E1,1.68E2,4.91E2,9.9E1,4.6E1,6.6E1,2.7E1,1E1,2E1,2.6E1],"tree_param":{"num_deleted":"0","num_feature":"38","num_nodes":"109","size_leaf_vector":"1"}},{"base_weights":[1.8423925E-4,-1.04288105E-2,2.2050297E-1,7.528671E-2,-1.5307005E-2,1.8646978E-1,2.554407E-1,8.216945E-2,7.436015E-2,-2.8866682E-2,-1.3552169E-2,2.1132886E-1,1.5148735E-1,2.8140634E-1,1.4204913E-1,3.3648915E-3,8.599291E-2,6.1380126E-2,7.517333E-2,-3.727289E-2,-2.4504883E-2,-1.6318291E-2,-3.5305012E-3,2.208922E-1,1.3607825E-1,1.6199632E-1,1.3297755E-1,1.5200008E-1,2.8997976E-1,9.2977956E-2,1.7394732E-1,4.8965167E-2,8.7045066E-2,5.8131743E-2,3.6772024E-3,7.480914E-2,8.878289E-2,-4.151958E-2,-3.4096744E-2,-2.2092059E-3,-2.2278665E-2,-1.5325505E-2,-3.930035E-2,-3.0825187E-2,1.6629769E-3,2.0674159E-1,2.8065938E-1,7.9980634E-2,1.6026346E-1,1.7087284E-1,1.3300893E-1,1.2555797E-1,1.6046558E-1,3.915057E-2,1.704245E-1,3.15315E-1,2.5395772E-1,1.07203946E-1,3.4330543E-3,2.1515532E-1,1.2689337E-1,6.9171976E-4,2.5813605E-3,3.5126545E-3,4.5013945E-3,3.6886397E-3,2.683125E-3,4.0487475E-3,3.7175564E-3,4.6434994E-3,2.0644504E-3,-2.1325096E-3,-1.6257473E-3,-1.9953924E-3,-1.6240964E-3,-1.1851522E-3,-3.552992E-4,-6.5971515E-4,-1.3491532E-3,-2.1769283E-3,-1.451519E-3,-1.0256695E-3,-1.6847367E-3,7.4778385E-5,1.2809713E-2,9.488072E-3,1.2372541E-2,5.636431E-3,1.4843488E-2,5.6725037E-3,2.0399143E-3,1.2914166E-3,8.23412E-3,5.82423E-3,8.774648E-3,5.4395045E-3,7.97939E-3,6.3472926E-3,2.926614E-3,8.824556E-3,4.54991E-3,2.7720444E-3,5.886036E-4,5.184192E-3,1.0233562E-2,1.8596005E-2,1.4055915E-2,1.1016757E-2,1.4847738E-2,5.5794553E-3,3.0596496E-3,8.781902E-3,1.5258335E-2,6.8564713E-3,2.398286E-3],"categories":[],"categories_nodes":[],"categories_segments":[],"categories_sizes":[],"default_left":[0,0,0,0,0,0,0,0,0,0,0,0,0,0,0,0,0,0,0,0,0,0,0,0,0,0,0,0,0,0,0,0,0,0,0,0,0,0,0,0,0,0,0,0,0,0,0,0,0,0,0,0,0,0,0,0,0,0,0,0,0,0,0,0,0,0,0,0,0,0,0,0,0,0,0,0,0,0,0,0,0,0,0,0,0,0,0,0,0,0,0,0,0,0,0,0,0,0,0,0,0,0,0,0,0,0,0,0,0,0,0,0,0,0,0],"id":17,"left_children":[1,3,5,7,9,11,13,15,17,19,21,23,25,27,29,-1,31,33,35,37,39,41,43,45,47,49,51,53,55,57,59,61,63,65,-1,67,69,71,73,-1,75,77,79,81,83,85,87,89,91,93,95,97,99,101,103,105,107,109,-1,111,113,-1,-1,-1,-1,-1,-1,-1,-1,-1,-1,-1,-1,-1,-1,-1,-1,-1,-1,-1,-1,-1,-1,-1,-1,-1,-1,-1,-1,-1,-1,-1,-1,-1,-1,-1,-1,-1,-1,-1,-1,-1,-1,-1,-1,-1,-1,-1,-1,-1,-1,-1,-1,-1,-1],"loss_changes":[1.2256655E2,2.091176E1,2.8167725E0,1.1064529E-2,1.1255159E0,1.0324135E0,3.45195E0,1.1839867E-2,2.0549774E-2,1.9785404E-1,1.1613755E0,4.830494E-1,7.805157E-2,1.0254364E0,3.328848E-1,0E0,5.204797E-3,1.4936328E-3,4.4555664E-3,2.3537397E-2,1.555059E-1,7.4854755E-1,1.2849127E0,4.7564125E-1,9.979105E-2,6.012535E-2,1.8806458E-2,1.2223756E-1,7.440262E-1,2.3773134E-2,2.3252392E-1,1.274459E-4,5.445838E-3,4.429579E-3,0E0,1.5544891E-4,6.4534545E-3,6.625414E-3,8.688211E-3,0E0,6.922674E-2,7.816529E-1,5.7888508E-2,4.2185068E-2,3.2414147E-1,3.083439E-1,2.8775597E-1,3.077954E-2,2.9607892E-2,4.0618896E-2,3.4135103E-2,6.988287E-3,2.5130033E-2,3.80739E-3,9.9918246E-2,9.136276E-1,4.8103333E-1,4.2685866E-3,0E0,1.953919E-1,4.5936584E-2,0E0,0E0,0E0,0E0,0E0,0E0,0E0,0E0,0E0,0E0,0E0,0E0,0E0,0E0,0E0,0E0,0E0,0E0,0E0,0E0,0E0,0E0,0E0,0E0,0E0,0E0,0E0,0E0,0E0,0E0,0E0,0E0,0E0,0E0,0E0,0E0,0E0,0E0,0E0,0E0,0E0,0E0,0E0,0E0,0E0,0E0,0E0,0E0,0E0,0E0,0E0,0E0,0E0,0E0],"parents":[2147483647,0,0,1,1,2,2,3,3,4,4,5,5,6,6,7,7,8,8,9,9,10,10,11,11,12,12,13,13,14,14,16,16,17,17,18,18,19,19,20,20,21,21,22,22,23,23,24,24,25,25,26,26,27,27,28,28,29,29,30,30,31,31,32,32,33,33,35,35,36,36,37,37,38,38,40,40,41,41,42,42,43,43,44,44,45,45,46,46,47,47,48,48,49,49,50,50,51,51,52,52,53,53,54,54,55,55,56,56,57,57,59,59,60,60],"right_children":[2,4,6,8,10,12,14,16,18,20,22,24,26,28,30,-1,32,34,36,38,40,42,44,46,48,50,52,54,56,58,60,62,64,66,-1,68,70,72,74,-1,76,78,80,82,84,86,88,90,92,94,96,98,100,102,104,106,108,110,-1,112,114,-1,-1,-1,-1,-1,-1,-1,-1,-1,-1,-1,-1,-1,-1,-1,-1,-1,-1,-1,-1,-1,-1,-1,-1,-1,-1,-1,-1,-1,-1,-1,-1,-1,-1,-1,-1,-1,-1,-1,-1,-1,-1,-1,-1,-1,-1,-1,-1,-1,-1,-1,-1,-1,-1],"split_conditions":[1E0,1E0,9.0807495E1,9.066467E1,9.06427E1,9.069763E1,9.086243E1,1.35E2,9.067566E1,9.060974E1,1E0,1.5E1,7.0710677E-1,1E0,9.091736E1,3.3648915E-3,-8.660254E-1,1E0,1E0,9.0598755E1,-7.0710677E-1,9.095032E1,-7.0710677E-1,7.5E2,1.275E3,9.073059E1,1E0,8.720831E0,9.082947E1,5E-1,-2.5881904E-1,1.3736044E0,9.06427E1,2E0,3.6772024E-3,9.0686646E1,1.4E1,1.305E3,1.65E2,-2.2092059E-3,1.335E3,1.7E1,9.097229E1,1.7E1,4E0,9.0686646E1,9.065369E1,1E0,5.532058E0,-5E-1,2.5881904E-1,9.075256E1,1E0,6.1158905E0,4.9E1,-5E-1,9.0840454E1,8.55E2,3.4330543E-3,1.84452E1,4.35E2,6.9171976E-4,2.5813605E-3,3.5126545E-3,4.5013945E-3,3.6886397E-3,2.683125E-3,4.0487475E-3,3.7175564E-3,4.6434994E-3,2.0644504E-3,-2.1325096E-3,-1.6257473E-3,-1.9953924E-3,-1.6240964E-3,-1.1851522E-3,-3.552992E-4,-6.5971515E-4,-1.3491532E-3,-2.1769283E-3,-1.451519E-3,-1.0256695E-3,-1.6847367E-3,7.4778385E-5,1.2809713E-2,9.488072E-3,1.2372541E-2,5.636431E-3,1.4843488E-2,5.6725037E-3,2.0399143E-3,1.2914166E-3,8.23412E-3,5.82423E-3,8.774648E-3,5.4395045E-3,7.97939E-3,6.3472926E-3,2.926614E-3,8.824556E-3,4.54991E-3,2.7720444E-3,5.886036E-4,5.184192E-3,1.0233562E-2,1.8596005E-2,1.4055915E-2,1.1016757E-2,1.4847738E-2,5.5794553E-3,3.0596496E-3,8.781902E-3,1.5258335E-2,6.8564713E-3,2.398286E-3],"split_indices":[18,19,4,4,4,4,4,7,4,4,33,5,8,5,4,0,8,32,32,4,8,4,8,7,7,4,33,2,4,8,9,2,4,5,0,4,5,7,7,0,7,5,4,5,1,4,4,23,2,8,8,4,8,2,0,9,4,7,0,2,7,0,0,0,0,0,0,0,0,0,0,0,0,0,0,0,0,0,0,0,0,0,0,0,0,0,0,0,0,0,0,0,0,0,0,0,0,0,0,0,0,0,0,0,0,0,0,0,0,0,0,0,0,0,0],"split_type":[0,0,0,0,0,0,0,0,0,0,0,0,0,0,0,0,0,0,0,0,0,0,0,0,0,0,0,0,0,0,0,0,0,0,0,0,0,0,0,0,0,0,0,0,0,0,0,0,0,0,0,0,0,0,0,0,0,0,0,0,0,0,0,0,0,0,0,0,0,0,0,0,0,0,0,0,0,0,0,0,0,0,0,0,0,0,0,0,0,0,0,0,0,0,0,0,0,0,0,0,0,0,0,0,0,0,0,0,0,0,0,0,0,0,0],"sum_hessian":[5.2416E4,5.0008E4,2.408E3,2.692E3,4.7316E4,1.223E3,1.185E3,3.09E2,2.383E3,5.42E3,4.1896E4,7.12E2,5.11E2,9.63E2,2.22E2,6.7E1,2.42E2,1.45E2,2.238E3,1.849E3,3.571E3,3.2833E4,9.063E3,6.3E2,8.2E1,3.21E2,1.9E2,6.1E1,9.02E2,8.9E1,1.33E2,8E0,2.34E2,1.19E2,2.6E1,2.186E3,5.2E1,7.86E2,1.063E3,3.61E2,3.21E3,3.1475E4,1.358E3,1.448E3,7.615E3,5.13E2,1.17E2,2.6E1,5.6E1,2.42E2,7.9E1,1.54E2,3.6E1,9E0,5.2E1,5.25E2,3.77E2,5.4E1,3.5E1,6.9E1,6.4E1,1E0,7E0,3.9E1,1.95E2,2.3E1,9.6E1,1.39E2,2.047E3,4.7E1,5E0,6.95E2,9.1E1,2.26E2,8.37E2,2.934E3,2.76E2,2.6612E4,4.863E3,9.59E2,3.99E2,3.17E2,1.131E3,7.611E3,4E0,3.66E2,1.47E2,1.1E1,1.06E2,1.3E1,1.3E1,2E0,5.4E1,2.1E1,2.21E2,4.4E1,3.5E1,1.5E2,4E0,2.8E1,8E0,5E0,4E0,1.9E1,3.3E1,1.94E2,3.31E2,2.15E2,1.62E2,4.8E1,6E0,5E1,1.9E1,5.6E1,8E0],"tree_param":{"num_deleted":"0","num_feature":"38","num_nodes":"115","size_leaf_vector":"1"}},{"base_weights":[1.6423024E-4,-9.9765565E-3,2.1244127E-1,7.126534E-2,-1.45158395E-2,1.811055E-1,2.4433677E-1,7.653353E-2,7.051541E-2,-1.4613069E-2,2.5872263E-1,2.0448156E-1,1.4767645E-1,2.6781973E-1,1.3742353E-1,8.291415E-2,6.79514E-2,5.9586704E-2,7.117761E-2,-2.7796596E-2,-1.288014E-2,8.228061E-3,3.241371E-1,1.8734777E-1,2.568798E-1,1.4153408E-1,1.8918288E-1,1.7858955E-1,2.9663092E-1,9.658045E-2,2.4702053E-1,8.435389E-2,4.6346392E-2,6.835005E-2,1.3348822E-3,7.862176E-2,5.6847714E-2,7.628696E-2,7.0291564E-2,-3.5658486E-2,-2.3733107E-2,-1.0313171E-2,-2.3665082E-2,3.4781286E-1,3.3682757E-3,1.2057243E-1,1.948093E-1,2.051124E-1,3.5342848E-1,1.459881E-1,5.3852245E-2,2.0721702E-1,9.677251E-2,1.4559965E-1,2.1146387E-1,2.265062E-1,3.2505435E-1,5.1226795E-2,1.0236969E-1,1.2815723E-1,3.160993E-1,3.2704254E-3,4.4205165E-3,2.438378E-3,6.7442656E-4,3.5271891E-3,2.771855E-3,1.0655895E-3,4.5586633E-3,3.6239084E-3,2.6229697E-3,3.1079454E-3,3.9458857E-3,3.3909443E-3,3.6188387E-3,-1.7033526E-3,-2.3559101E-3,-8.580492E-4,-1.7056832E-3,-3.768905E-5,-8.0467155E-4,-1.606036E-3,-7.615363E-4,6.090413E-3,2.0142317E-2,4.9147233E-3,9.420684E-3,1.094846E-2,8.713157E-3,4.540443E-3,1.2802531E-2,1.915308E-2,1.3912688E-3,7.033919E-3,1.0114382E-2,2.9758608E-3,6.032162E-4,3.2181968E-3,1.07402215E-2,5.209591E-3,3.7900583E-4,6.5317983E-3,1.0248967E-2,1.4148598E-2,7.5418367E-3,6.839435E-3,1.2938949E-2,1.6439876E-2,-2.520475E-3,3.3284537E-3,1.7725592E-3,5.914864E-3,3.9248983E-3,4.408116E-3,9.028785E-3,2.0430533E-2,4.8512844E-3],"categories":[],"categories_nodes":[],"categories_segments":[],"categories_sizes":[],"default_left":[0,0,0,0,0,0,0,0,0,0,0,0,0,0,0,0,0,0,0,0,0,0,0,0,0,0,0,0,0,0,0,0,0,0,0,0,0,0,0,0,0,0,0,0,0,0,0,0,0,0,0,0,0,0,0,0,0,0,0,0,0,0,0,0,0,0,0,0,0,0,0,0,0,0,0,0,0,0,0,0,0,0,0,0,0,0,0,0,0,0,0,0,0,0,0,0,0,0,0,0,0,0,0,0,0,0,0,0,0,0,0,0,0,0,0,0,0],"id":18,"left_children":[1,3,5,7,9,11,13,15,17,19,21,23,25,27,29,31,33,35,37,39,41,-1,43,45,47,49,51,53,55,57,59,61,63,65,-1,67,69,71,73,75,77,79,81,83,-1,85,87,89,91,93,95,97,99,101,103,105,107,109,111,113,115,-1,-1,-1,-1,-1,-1,-1,-1,-1,-1,-1,-1,-1,-1,-1,-1,-1,-1,-1,-1,-1,-1,-1,-1,-1,-1,-1,-1,-1,-1,-1,-1,-1,-1,-1,-1,-1,-1,-1,-1,-1,-1,-1,-1,-1,-1,-1,-1,-1,-1,-1,-1,-1,-1,-1,-1],"loss_changes":[1.1345572E2,1.8551401E1,2.3574753E0,5.1193237E-3,1.2694464E0,9.200325E-1,2.9458313E0,1.1888862E-2,1.2716293E-2,1.0876875E0,5.1371336E-2,5.9199524E-1,1.0171795E-1,2.4484482E0,9.4301844E-1,5.5145025E-3,5.104542E-4,2.829671E-3,4.61483E-3,1.7588234E-1,1.165112E0,0E0,3.1282842E-2,2.4606133E-1,7.9217434E-1,1.6514683E-1,8.3272934E-2,2.29496E-1,1.3893661E0,3.6503434E-2,4.3572354E-1,7.358551E-3,5.818531E-5,5.5134296E-5,0E0,8.846842E-3,4.840344E-3,6.7652464E-3,4.8418045E-3,3.2735825E-2,2.484262E-1,1.87885E0,5.7661533E-1,5.0432563E-2,0E0,6.762773E-2,2.0259285E-1,6.4632654E-1,5.586114E-1,9.739399E-2,4.7266856E-3,4.1452408E-2,7.1511567E-3,8.251262E-2,4.688859E-1,5.8712006E-1,7.4739456E-1,2.4807192E-3,4.3944597E-2,3.2298863E-2,6.8995905E-1,0E0,0E0,0E0,0E0,0E0,0E0,0E0,0E0,0E0,0E0,0E0,0E0,0E0,0E0,0E0,0E0,0E0,0E0,0E0,0E0,0E0,0E0,0E0,0E0,0E0,0E0,0E0,0E0,0E0,0E0,0E0,0E0,0E0,0E0,0E0,0E0,0E0,0E0,0E0,0E0,0E0,0E0,0E0,0E0,0E0,0E0,0E0,0E0,0E0,0E0,0E0,0E0,0E0,0E0,0E0,0E0],"parents":[2147483647,0,0,1,1,2,2,3,3,4,4,5,5,6,6,7,7,8,8,9,9,10,10,11,11,12,12,13,13,14,14,15,15,16,16,17,17,18,18,19,19,20,20,22,22,23,23,24,24,25,25,26,26,27,27,28,28,29,29,30,30,31,31,32,32,33,33,35,35,36,36,37,37,38,38,39,39,40,40,41,41,42,42,43,43,45,45,46,46,47,47,48,48,49,49,50,50,51,51,52,52,53,53,54,54,55,55,56,56,57,57,58,58,59,59,60,60],"right_children":[2,4,6,8,10,12,14,16,18,20,22,24,26,28,30,32,34,36,38,40,42,-1,44,46,48,50,52,54,56,58,60,62,64,66,-1,68,70,72,74,76,78,80,82,84,-1,86,88,90,92,94,96,98,100,102,104,106,108,110,112,114,116,-1,-1,-1,-1,-1,-1,-1,-1,-1,-1,-1,-1,-1,-1,-1,-1,-1,-1,-1,-1,-1,-1,-1,-1,-1,-1,-1,-1,-1,-1,-1,-1,-1,-1,-1,-1,-1,-1,-1,-1,-1,-1,-1,-1,-1,-1,-1,-1,-1,-1,-1,-1,-1,-1,-1,-1],"split_conditions":[1E0,1E0,9.0807495E1,9.066467E1,4E0,9.069763E1,9.086243E1,5E-1,9.067566E1,9.06427E1,5.6655387E-16,-5.3201294E0,-5.2871704E0,-5.3640747E0,-5.2816772E0,1.7E1,-5.2926636E0,9E1,-5.413513E0,9.060974E1,-5.2816772E0,8.228061E-3,1.2E1,9.065369E1,9.0686646E1,-5.2981567E0,-5.2816772E0,-5.375061E0,2.7E2,-9.659258E-1,3.75E2,9.06427E1,1E0,7.0710677E-1,1.3348822E-3,-5.347595E0,-5.4519653E0,1.2246469E-16,9.0807495E1,-5.3311157E0,-5.342102E0,9.073059E1,9.0807495E1,-5.3860474E0,3.3682757E-3,4.9E1,9.066467E1,-5.314636E0,-5.314636E0,-5.309143E0,1.5E1,-8.660254E-1,4.9E1,9.0840454E1,-5.369568E0,9.081848E1,-5.2816772E0,-5.3530884E0,5E-1,1.95E2,-5.276184E0,3.2704254E-3,4.4205165E-3,2.438378E-3,6.7442656E-4,3.5271891E-3,2.771855E-3,1.0655895E-3,4.5586633E-3,3.6239084E-3,2.6229697E-3,3.1079454E-3,3.9458857E-3,3.3909443E-3,3.6188387E-3,-1.7033526E-3,-2.3559101E-3,-8.580492E-4,-1.7056832E-3,-3.768905E-5,-8.0467155E-4,-1.606036E-3,-7.615363E-4,6.090413E-3,2.0142317E-2,4.9147233E-3,9.420684E-3,1.094846E-2,8.713157E-3,4.540443E-3,1.2802531E-2,1.915308E-2,1.3912688E-3,7.033919E-3,1.0114382E-2,2.9758608E-3,6.032162E-4,3.2181968E-3,1.07402215E-2,5.209591E-3,3.7900583E-4,6.5317983E-3,1.0248967E-2,1.4148598E-2,7.5418367E-3,6.839435E-3,1.2938949E-2,1.6439876E-2,-2.520475E-3,3.3284537E-3,1.7725592E-3,5.914864E-3,3.9248983E-3,4.408116E-3,9.028785E-3,2.0430533E-2,4.8512844E-3],"split_indices":[18,19,4,4,1,4,4,9,4,4,10,3,3,3,3,5,3,7,3,4,3,0,5,4,4,3,3,3,7,9,7,4,27,8,0,3,3,8,4,3,3,4,4,3,0,0,4,3,3,3,5,8,0,4,3,4,3,3,8,7,3,0,0,0,0,0,0,0,0,0,0,0,0,0,0,0,0,0,0,0,0,0,0,0,0,0,0,0,0,0,0,0,0,0,0,0,0,0,0,0,0,0,0,0,0,0,0,0,0,0,0,0,0,0,0,0,0],"split_type":[0,0,0,0,0,0,0,0,0,0,0,0,0,0,0,0,0,0,0,0,0,0,0,0,0,0,0,0,0,0,0,0,0,0,0,0,0,0,0,0,0,0,0,0,0,0,0,0,0,0,0,0,0,0,0,0,0,0,0,0,0,0,0,0,0,0,0,0,0,0,0,0,0,0,0,0,0,0,0,0,0,0,0,0,0,0,0,0,0,0,0,0,0,0,0,0,0,0,0,0,0,0,0,0,0,0,0,0,0,0,0,0,0,0,0,0,0],"sum_hessian":[5.2703E4,5.0301E4,2.402E3,2.661E3,4.764E4,1.215E3,1.187E3,3.19E2,2.342E3,4.7624E4,1.6E1,7.12E2,5.03E2,9.72E2,2.15E2,1.78E2,1.41E2,1.39E2,2.203E3,5.531E3,4.2093E4,8E0,8E0,5.4E2,